elements: [Si]
E0: [0]
deltaSplineBins: 0.001
embeddings:
  0: {ndensity: 2, FS_parameters: [1, 1, 7.5577494194990145, 0.10100000000000001], npoti: FinnisSinclairShiftedScaled, rho_core_cutoff: 1, drho_core_cutoff: 1}
bonds:
  [0, 0]: {nradmax: 12, lmax: 7, nradbasemax: 19, radbasename: SBessel, radparameters: [3.3135018034502046], radcoefficients: [[[0.93929764486552614, -0.06989343320702969, 0.018845081562879108, 0.049344799824285655, 0.14118676464920979, -0.016907111655587111, -0.00085256220748375822, 0.018127587343893713, -0.020966920806962309, 0.051019319659458273, -0.045556617772133129, 0.061637713301574047, -0.047152662519395649, 0.027512951161912824, -0.010353429775024615, 0.006160251621268922, -0.012039952626089756, 0.0031751818932460331, 0.0011927500594450546], [0.88701303482139038, -0.29724926895334441, -0.024879865086767795, 0.11451695545667495, -0.066480504412396918, -0.0069426005067212389, -0.00053348756680607107, 0.0036038695979198386, -0.00049088804031095648, -0.036409897524801012, 0.056249530307443993, -0.036625966884381078, 0.031012887916199567, -0.0047766462189230271, -0.0075976454093824065, 0.0037414732255928599, -0.00062498190460287084, 0.0031832925025165274, -0.0026303835190567126], [1.0708209003871985, -0.25068732685599421, -0.13935605186389752, 0.19302718690192197, -0.0058714672694302403, -0.081260367842643344, 0.014088910611482671, 0.029583343298009837, 0.019817161563524144, -0.028712968033715709, 0.0656899424798362, -0.04386983992882288, 0.045895994741774117, -0.0081284241729394722, -0.0030932700027398474, 0.0020953267209467392, 0.0052668257055515826, -0.0041086130454539814, 0.0069664536199447857], [0.92549118160579613, -0.16005671415515993, -0.12599899847477922, 0.091176361040110426, 0.12191983897458492, -0.13226567880677556, -0.027702415373208542, 0.095169360418598942, -0.054086706315921253, 0.075624939636331989, 0.011762756013098797, -0.044748259051910454, 0.070383002616556209, -0.034493392378506092, 0.020099010797453021, -0.025877674068756136, 0.0072200043182358582, 0.00085131853008419875, -0.0072684168635425905], [0.86346487702660879, -0.098969242406986943, -0.017127422205104929, -0.080285108532926294, 0.11833799811996482, -0.14504532920604413, -0.28536766173333844, 0.19448094439959818, -0.11828005799515308, -0.0047563710418375288, 0.13651467043282889, -0.12917867912590722, 0.075849669159714528, -0.033021326810295598, 0.039716333362575802, 0.011227674070161097, -0.0046096618760573718, -0.00045376508304629127, 0.0054801177073707259], [0.952485142697443, 0.16241222625929944, 0.14288299745405175, -0.043119619597207066, -0.064169237272248963, -0.076386330272760053, 0.053537127625161482, 0.020498851464217614, -0.23255194150653669, -0.13952616164462198, -0.020799776852725486, -0.094660900970981149, 0.027654508096278663, 0.045022111866435503, 0.014147004421230736, -0.044312481030925048, 0.047682066896068735, 0.011606590776811263, 0.0016797723411224276], [1.0011581267061194, -0.0646059876840792, -0.024607341002976776, 0.016920677364117797, -0.036332258859411354, -0.1660977975382448, -0.18494665673423247, 0.12671778406120143, 0.18278779910700726, -0.02059316528305688, 0.0058976732884794174, 0.0092482938963938423, 0.14643142874456108, 0.044666883484631048, -0.039468765524823236, 0.083938209047769052, 0.0022995455319463802, 0.012125238827654313, 0.0078625450726972843], [0.99981204964939019, -0.0019990264097999007, 0.0019608315699827013, 0.0052789605796706787, 0.0017699541971498978, 0.00183249368753398, 3.3482370614716443e-05, -0.0087969420163452779, -0.0079154308299461424, 0.0045052180559884266, 0.0088791319807120499, -0.0013661862796637322, -0.0093928815502994905, -0.0055770881935242106, 0.0011375690081819947, 0.0092755955122465483, 0.0095469032295615059, -0.0078340709935182089, -0.0044484150628219636]], [[-0.0036214749935561084, 1.000445594285676, -0.19557421078958265, 0.063424892765831173, 0.15355206833183135, 0.023068527450392735, 0.0068732868005496441, -0.044207897188255386, 0.058708855459547113, -0.003061457871944014, -0.020771506902360629, 0.066804024655345309, -0.060142375482666585, 0.024527307964483581, -0.01005781311532896, 0.0011211980636443807, -0.013873994901814648, 0.0015655686699031347, 0.0062509858751864985], [0.0970070562108903, 0.91508338870463413, -0.12213944614494536, -0.13187649542823848, -0.10137170538343344, 0.071977340135629092, -0.065243086173048595, -0.068266761917952404, 0.0063340770093319532, -0.057117632313249234, 0.054895621672807177, -0.048575202012392536, 0.027632315444459328, 0.01097958681664012, -0.073357318223478088, 0.05515779366169387, -0.031694147396488175, 0.009727833472173944, -0.0093226660580961428], [-0.064811645958096922, 0.91891397026936306, -0.027300762509141048, 0.086283361005213041, -0.0068204099699672172, -0.11168753298821332, 0.020737759622953475, 0.014743875345243539, -0.0056794305015999023, 0.0079054127577856716, -0.014623932635133795, -0.0079808679092981064, -0.041988501211437712, 0.03913859884313961, -0.059559866700938692, 0.047820259287323148, -0.0059747700672316073, -0.00072203158207754679, 0.0018400770709066222], [-0.02347796857746455, 0.95685133814439605, -0.16864717022754222, 0.0083308110865866897, 0.091972550289988936, -0.062184674661215966, -0.08799548476407662, -0.15515186752139107, -0.018446400149208064, -0.0070467898450743451, -0.045999678847963979, 0.039685244075930146, -0.040506285543394902, 0.042509364935569088, -0.011261077020440088, -0.012824393564967009, 0.0061842671726285428, 0.00060023149021641033, -0.0046946549122572076], [-0.13200100504447615, 0.93946020209235204, -0.26096544419238138, -0.043210986306059178, 0.15220942546281974, -0.27150559161981619, -0.20856996977717024, -0.0074497496347482872, -0.03856613029518826, 3.1260710916243987e-06, 0.085358148943147291, -0.058724327560870371, 0.02146381709147625, 0.021194001115121115, 0.023863257978107479, 0.020552215002927747, -0.012463207348119109, -0.005893417047203281, 0.0021223135628910348], [-0.0087998738150090825, 0.99741991311689915, 0.092432517426236191, 0.11618992338253196, -0.027212244648517035, -0.04011285026501845, -0.0035961949068380344, -0.13554897795885124, -0.18151691041760262, -0.14740978211454658, -0.070304461599427617, 0.015375258680446129, -0.092938207908906723, 0.074047153755085859, 0.055074729598165201, -0.018997325823424747, 0.053275540621111589, 0.023579107058599925, 0.0034504064499629541], [-0.0018430495163955921, 0.99900548830396352, 0.0010827263497535291, -0.011771109737913538, -0.014405153728298136, -9.6090870095211927e-05, 0.0067330165700721827, 0.027634745565731422, 0.025066456523196289, -0.017565867723891015, -0.012939743647746301, 0.002560126883580018, -0.013709621523430639, 0.0083900924953093283, 0.012727858642449999, -0.030894823483796525, -0.019065409049108688, 0.012513405194145989, -0.0054120700170699311], [-0.00012715736069608173, 0.99972332555697963, -0.0020464917567625438, -0.0014519068419219998, -0.00035679453374900394, -0.002756696038198544, 0.00049651286814463653, 0.0059623992097388046, 0.0023153657663077419, -0.0015459415179317685, -0.0012957314454409333, -0.00061558435060606661, 0.0045783736060479923, 0.0071104582402937945, -0.00099692483190059436, -0.0099923721406377508, -0.0069701801971324322, 0.010867239691357476, 0.0090100101693572805]], [[0.1370564711627372, 0.062851412536963844, 0.85887687909944177, -0.15186607297444946, 0.053714277344072039, -0.10204272410435292, -0.05629345001881584, 0.019028746966975436, -0.057436162237115986, 0.058966583139515513, -0.039903914887695152, 0.022323477284479937, -0.037274065199129625, 0.012610628987857973, -0.0067243252984891888, -0.025921212529552328, 0.010865805125144489, -0.0029170479690548328, 0.0030061213469911208], [0.051781664990299167, 0.089272678388819429, 0.97881803125986222, -0.1954224868061831, -0.14551775711882109, 0.017627316235336248, -0.010967807510907649, -0.01383322160530262, 0.053106438114253196, 0.027055157945359686, 0.013648112496705925, -0.048172732169646119, 0.088938241131690757, -0.059366190952520076, 0.035918913654694837, -0.016704392675073187, -0.0041836094976898421, 0.0043526178819869588, 0.0073108556301367724], [-0.098800835358137121, -0.11474296282504584, 1.0508683829926961, -0.12393422411919244, -0.096661667576057778, 0.10556747285704109, 5.2012067498562325e-05, 0.1480493343157647, -0.060186372039017902, -0.092224845891255125, 0.14747715272209172, -0.23520309685965074, 0.14340268337751882, -0.10048251008718226, -0.027709339477173692, 0.041261050517952452, -0.011415538293751051, 0.0051659138180441622, -0.0048657983997313281], [-0.023824848237062789, -0.062009278556936963, 1.1524023826988767, -0.11699270532748204, -0.23177893723399515, 0.23382300526776215, 0.0063184697480383198, -0.15017916088097844, -0.020357025807492095, -0.16432576807985738, 0.020438217496123161, -0.049448970840969705, 0.01940509444324319, -0.012335347770941014, 0.015549460609520921, 0.018992589939996196, 0.0078436405588325417, -0.0059440556790223758, 0.010240176626849857], [0.0048330091686289399, 0.0093915347580250507, 1.0565369116771086, -0.081958498537870683, -0.04542173961340925, 0.15846991480524023, 0.01240283871590421, -0.14992400827896177, -0.13692974133742178, -0.036260860742983236, 0.0057365010542558192, 0.0064464082562760844, -0.082127626499227183, 0.031389263557083678, 0.08551529650871148, -0.015508289691295777, 0.0037037894541812931, 0.018305223567020905, 0.005830729987636501], [-0.017480355743561722, -0.0020464090577371917, 0.93517005042028611, -0.076486166824291574, 0.0010994640514001375, -0.076721589529414061, -0.12030205749544066, 0.067000912325356751, 0.11916774224857672, -0.086820306854204221, -0.033695614433905785, 0.18329170313275328, -0.10998744311503471, -0.21117975690007834, 0.27796582977273848, -0.0014401824657782685, 0.0089758547911971947, -0.0026930275545310354, 0.0044393618835067089], [-0.00029055446992779855, -0.00021607893262336143, 1.0001873973197073, -0.0008993551416651796, -0.001562576440638708, 0.00080101591788193211, 0.0027246032841408722, 0.0039177662491800659, 0.0058063726007827002, 0.0046756790434535483, 0.0026841517235519276, 0.0010467398075706858, -0.0039589209523515955, -0.0038712338756585769, 0.0033269519554751398, 0.0040200829334625845, 0.0014258422609619314, 7.0294176320218369e-05, -0.0020675496850982166], [-7.1381110836811639e-05, 9.3602940099355556e-05, 0.99995421542819085, -0.0002150963920288859, 0.00072170758189090691, 0.001189149610145864, -0.00040020301044773032, -0.00089287011147515564, 0.00089672646752605848, 0.00082481466886785671, -0.00068613793273553775, -0.0003723801106859532, -0.00060409232462471803, -0.0018770743158418029, -0.0009345406511512425, 0.00037775385776012669, -0.00046416748666532531, -0.0023523226148499878, -0.0032468707975059552]], [[0.19711928739232487, 0.056577637134293444, -0.12278295287441578, 0.96486284930019584, -0.11866812212190686, -0.13448044143126792, -0.071050636588911087, -0.061762057904845499, -0.061549987429541264, -0.0098030572960196901, 0.044322148433517776, 2.9352240367030668e-05, -0.051253871918628076, 0.08557267670726991, -0.017083700799188022, -0.0071256095945531799, -0.00087032526459275062, -0.0060907518006761115, -0.0035470916847790785], [-0.087714429276321754, -0.075002992150685122, -0.04320753929571601, 0.9172464356874942, -0.045643435961722545, -0.026809755029968314, 0.0080695330093465412, 0.11226782963421859, 0.1232096254084433, 0.041892740709438298, -0.071756420649989036, 0.074648020202362234, 0.0048358849027174931, -0.027789502940773963, 0.18348138118778695, -0.090628926401021243, 0.022258248042842928, 0.013233097599723761, 0.014850909535650389], [-0.048434280104470588, -0.02956269093779277, -0.12949513119160172, 0.86692507341163394, 0.010803646834099147, 0.058854233824283272, 0.20864585439778166, 0.13345137962675255, -0.12994309635684265, 0.054469654422141765, 0.070693739377545486, -0.11032204528864192, 0.13979357668220155, -0.065199772465609179, -0.033489019093875534, 0.0053893739822039278, 0.023711008925589524, -0.0054209639340947885, -0.00078055338890972421], [0.064723379438255124, 0.041760856317351082, -0.021329993130348966, 0.86917883612850311, -0.33651826525050149, -0.12091339986378978, 0.3402804315530506, 0.17930254317122057, -0.089865058202044837, 0.028493382375986646, -0.018182497683610428, -0.054473420499517915, 0.021351019923803404, -0.1290523930273603, 0.082017122963090841, -0.032165229620951294, 0.025565804033559535, -0.012647903985006164, 0.010440206711174554], [-0.012238987543475452, 0.00022383708075346593, -0.002628955611030959, 0.98281251266405645, -0.00011349908545252208, 0.054154679137373034, 0.031973105323558203, -0.043356316140241734, -0.065330324588634886, -0.069333171892083656, 0.071866834419443373, 0.046719328408522109, -0.16263135130263046, 0.017585243097302115, 0.14563029979764897, -0.1011507955825818, 0.041008790255198997, 0.0055118787815892026, 0.004389373287181534], [0.00017650940156986331, -0.00020399081677104322, 0.0020285337116462206, 0.99914737871382964, -0.0051126703492657809, -0.00068148341795715628, -0.0011288864759121909, -0.0072243286484924103, -0.006531599435745156, -0.0011939096902188681, 0.0080962000290273478, 0.014284040428314016, 0.011305284434782074, 0.0089756858734779624, 0.0056618506323942008, 0.0020302407548930127, -0.023229460239689234, 0.0010398109574414542, 0.0022609591379439274], [-5.5341622504514452e-05, 7.5827428111900345e-05, -1.9213637459703083e-05, 0.99984401665322664, 2.5391923904345943e-06, -0.00013616712719340473, -0.00032110941076082236, -0.00059657394139732184, -0.001370222059075252, -0.0014007096714883567, -0.0002733010126857254, 0.00067573337591564104, 0.00090435897940478033, 0.0010022463524478535, 0.00072817882473851609, -0.00012408318889810439, -0.00037143578052794359, 0.00045508056729554784, 0.00060317628844544242], [6.3573854866952023e-08, 6.949670780790444e-07, -1.8399019743835415e-06, 0.99998952344223113, -3.9489000952495143e-06, 2.5542188879106015e-06, 1.6333549084723469e-06, 2.3702026281647475e-06, 3.1954371452654681e-06, 3.0219512923063811e-06, 5.8522268604595883e-06, 1.423599878891781e-05, -1.190766203731482e-06, -1.0617057264377071e-05, -1.0214580955473909e-05, -4.3076180672705453e-06, -6.874111923588295e-06, -2.1456630822653129e-06, -8.6168332244434978e-07]], [[0.033383425158922828, -0.03263119045212156, -0.098907743264322903, -0.09729915452361923, 0.86840251687323966, -0.0016834426880687674, 0.19007722767699692, -0.036121241957069561, -0.042090618399611902, 0.0055440348753655827, -0.027333020868232728, 0.13579037040726835, -0.089676106681497808, 0.082063186563948703, 0.02364557021660401, 0.028259049845796982, -0.023166736834848701, -0.0066614216193355341, 0.0018429734833757723], [-0.074274894607869638, 0.027212365919082711, 0.026784807273154323, 0.063824826368199847, 1.1153039070709725, -0.021574374881916696, -0.0094590932703075992, 0.069484218780745094, 0.11522042438541501, -0.004528618075388866, -0.12873027719471428, 0.12361466915699504, -0.050410609645078666, -0.027692084486319313, 0.21460983036343687, -0.037094019133678852, -0.017788417131914355, 0.03417902336962695, 0.0052638944848273092], [0.0105968228039555, -0.010707631265184108, -0.045098545871062053, -0.033668391480921586, 1.0167465764575829, -0.043310051398804228, -0.10914142023626347, -0.039610248214755464, 0.0049072761431562797, 0.061321495223283659, 0.049649581895275782, 0.0085009115099897933, 0.064272621750371461, 0.034648304492378178, -0.012589201987289689, 0.030630773439870338, 0.021712879233038301, -0.0027896124047365103, -0.0069263608012584636], [0.031032740816678804, -0.026187972371618826, -0.034367512303225933, 0.03698214241722092, 0.98267240662204636, -0.16446507080490749, -0.12395074375474349, 0.19225003681726999, 0.28246399643808912, -0.026236112361592675, -0.058748930488371737, 0.05348300719429127, -0.1184529446791544, -0.10894652162305639, -0.04082962573036316, 0.015133628037614184, 0.013760348431181397, -0.008655666122320849, -0.0049474578697022709], [-0.024946282311708735, -0.012266277115052208, 0.053765251910643255, 0.05385093095503015, 0.89501834507123457, -0.084119704198298215, 0.26104662661923839, 0.3623846243237594, 0.093685320381287823, -0.056817229337608167, 0.02291953473711934, 0.072898852248318186, 0.014248557769626488, -0.013608708133406052, -0.24825296214410858, -0.075776990615914003, 0.030602645201792161, 0.023899226246590778, 0.0024654841940686257], [3.503920278121587e-06, -0.0002297433816054071, -0.00036472987259677473, -0.00026043426608667573, 0.99937943164716225, -0.00065655092455263529, -0.00042867497432789455, -0.00079530964446906027, -0.00029140333715158462, -4.8910753597635383e-05, -0.0013366206916607792, -0.0015765163627838902, -0.00084342072474260805, 0.0018557655416593295, 0.0050784151136367217, -0.00055221929801071849, -0.010673837066126622, -0.0058950657210184131, 0.0038944539728702691], [-1.8743094199006614e-05, -2.4205077400893629e-06, 1.1790516651137427e-05, -2.8004695176634026e-05, 0.99988769182709791, -0.00011887256903166299, -0.00010327473170067911, -7.8912652598198984e-05, -0.00011904347127700461, -0.00014732148086419518, 5.9167989857507834e-05, 0.00025000650873274472, 5.8675413982352898e-05, -0.0002121654737783227, 5.1632100102837467e-05, 0.00010970643463576325, -0.00047846216648746571, -0.0007332561513649161, 0.00016110637644109927], [7.2242749093553052e-08, 1.8965775959605737e-07, 1.1983988123238008e-06, -2.906770803616941e-06, 0.99998541841996857, -5.4462292029459574e-06, 3.0986143534445819e-06, 1.8225785034595592e-06, 3.4769839703626644e-06, 3.1516296273836873e-06, 3.0905417205310495e-06, 3.8894978665446221e-06, 4.4453769543397058e-06, 8.8686697574272229e-06, 2.2520036696856655e-05, -1.7007622461481155e-09, -1.6030362846652681e-05, -5.6069914988878008e-06, -1.2782845467233589e-06]], [[-0.013112515332246163, -0.065164231876163561, -0.11364583638324012, -0.085225614010889031, 0.013519980861882495, 1.0492063902206497, 0.062133340243444204, 0.13204056467078198, 0.035522932676051958, -0.058901755387608931, -0.0032245906803505834, 0.096138905025481752, -0.024139206045343756, -0.03314775121678909, 0.072482274311494899, 0.0033447944911766353, 0.0035823912494411625, -0.0021072644084399661, 0.0042172734983025352], [0.051327426136269602, -0.054502031656279815, -0.070969131596083035, -0.078545741117026141, -0.063698092713724772, 1.0482623972140352, -0.064539910045297536, -0.057293287339718814, 0.060084130840322554, -0.05395969085056844, -0.039919245121054978, 0.015625148983257377, 0.073302006202376702, -0.14244312345521781, 0.0064909119558759169, 0.073944241228988322, -0.035838258194981383, 0.01174317986138995, -0.0034293390805969293], [-0.0031876809412411293, -0.020012097285910885, 0.055525063946194692, 0.018082836553133235, -0.062210395155073518, 0.99440234620582357, -0.088807834816061915, -0.14006926233753056, 0.023750723771600805, 0.093246083661027088, -0.014533439783591088, -0.025034434376162425, 0.18988035386964827, -0.099627260953566055, 0.069177438040330427, -0.093948205362188619, 0.02457856957345806, 0.017063975057093603, 0.0044895023094931024], [-0.0034450311631053217, 0.033355402754845095, 0.04739491850968202, -0.033577239127409599, -0.034434235068809681, 1.010361642815266, -0.038662751879898295, -0.0075198209655270281, 0.11557616221960955, 0.1384828319419375, -0.0503784832245361, -0.078499542410662329, 0.19968053049975096, 0.052600431063082487, -0.13331418569021497, 0.052095832976987742, -0.020094000876122217, -0.020736701493992024, 0.0008342736727463987], [0.0037672508663858986, 0.00016058422982815056, 0.0024950157829918625, 0.0083264648629770566, 0.002208680649262087, 0.99778352634029632, -0.0094828172951964638, -0.017738828348106077, -0.0012369740790656798, 0.0032096225594301143, -0.0074051756562529495, 0.018155624987187653, 0.020255672143224154, -0.01924989924720177, -0.019937702439225911, -0.017502686612992181, 0.00066747586156353401, -0.0052388019898862402, -0.0089693640359870281], [0.00012594055094868197, 0.00027057504567907424, 0.0002719385294227971, 2.747432427068177e-05, -2.6284534068702329e-05, 0.99993716206662497, -0.00010409005462648831, 0.00051359444090306658, 0.00094255108613174401, 0.00054498720034691129, 0.00031557341835726282, 0.00031421521045381097, 0.00089038090533357728, 0.0012214700885822794, -0.00030258935001701659, -0.00038181644312077189, 0.0025971551144811783, 0.0038610703506599653, 0.00037785810648336961], [5.5219654475497999e-07, 1.6637082752426818e-06, 1.6713205602064277e-06, 1.0122311073171475e-05, -2.1458224687517886e-05, 0.99988503652324456, -4.9350515365555949e-05, 2.1265441721074517e-05, 1.2825145744752152e-05, 2.0941939883098062e-05, 2.125080381945876e-05, 2.1953065359942679e-05, 3.0999386556938151e-05, 2.8733843888791865e-05, 3.2403251344490198e-05, 1.5833658995204216e-05, 8.9353724482197433e-06, 1.3979510492356999e-05, 1.5502408447444021e-06], [9.3255680354931358e-08, 2.8096924346799938e-07, 2.8225481558790489e-07, 1.7094692396368775e-06, -3.623893247818279e-06, 0.99998058481643526, -8.334379954863496e-06, 3.5913358070993521e-06, 2.1659275147946282e-06, 3.5367023843845078e-06, 3.5888637883842645e-06, 3.7074626070055028e-06, 5.2352172041528137e-06, 4.852609488596764e-06, 5.4723038415234621e-06, 6.9912232871373773e-06, 8.9353725366432965e-06, 1.3979510684813893e-05, 1.550240867566507e-06]], [[0.029646495731682401, -0.058407521279966179, -0.1010106400272698, 0.085130174512932241, 0.13062500458688445, -0.047701720436749459, 0.85402223305406244, -0.0039178302131643887, 0.14179284176122886, -0.017214214983411569, -0.0068667904606460727, 0.059831754957086293, -0.13764711771012286, 0.032406062556810479, -0.018852920876232609, -0.0016858870749955005, 0.023285463055752468, 0.0040841517277355249, -0.0042757761553618981], [-0.015544791404392872, 0.0094954533646864209, -0.0026664842753497935, 0.036677935413725618, 0.01167039449440478, -0.036593678634540737, 1.0678868868154439, -0.019622697239444046, -0.11447961169784507, -0.010283728554183143, 0.011538177246944633, 0.032326267218637295, -0.040894308988376801, 0.12210206160722679, 0.0028311438701830276, 0.056287370962204437, 0.0098277983680302092, 0.0075673429893564383, 0.001263387968368782], [0.0074470121194542905, -0.0056577981432191981, -0.00089819417867892945, 0.044506752847584215, 0.02367925653340262, -0.004543444892261491, 1.0404665130345876, 0.065997613141850375, 0.075042531504968535, 0.001912860811182376, -0.0064761439620071555, 0.14399976642791251, 0.010363807074318375, -0.049475170691569433, -0.14039665980797481, -0.055509774465207488, 0.003403938322774051, 0.0014487944591836035, 0.0094839102789228413], [0.0086207430930636559, 0.001900704101582312, -0.011683506231515846, 0.011255852258836265, -0.0088779688247355958, -0.03081851698594909, 1.0277264289632455, 0.0083791657930256738, 0.0047135021388387656, 0.096444078873800798, 0.020440089420100501, -0.08052692669463711, -0.023273522714539065, -0.015123512459843988, -0.046085297969781183, -0.067390393856995717, -0.0038205858540717439, -0.0093750258882534816, -0.0065255093012763048], [-0.00060194949915240784, -0.00031604088289641658, -0.00063532565879098992, -0.0019483002286551814, -0.00080070787128617266, 0.00040637862579371919, 0.99956329480730333, -8.8252869778425127e-05, -0.0017583014896238333, -0.0013436036560675883, 0.0066589670219609791, 0.0071022523510429099, 9.289595427774329e-05, 0.00086722060005194512, -0.00019036565101483911, -0.0030680203515116413, 0.0082484434870394568, 0.0002079879967323261, 0.0025086340840102372], [2.1385654784363512e-05, -5.0776165884778342e-05, -0.00012154226425057174, -1.8120905929979064e-05, 5.362018706892868e-06, -9.9060134365758107e-05, 0.99986259144323908, -0.00017853607010403941, -5.5765522724062561e-05, 0.00039328622974758702, 0.00039312087810385753, 0.00013249275800785847, 7.6910643333454848e-05, -6.7453918551711208e-05, 0.00019055259139703397, 0.0004748596535616223, 0.00076446802821200719, 0.0014035415089832298, -0.00023144175909532746], [3.3471926931105736e-07, 4.1837660987264791e-07, 2.0988177109793931e-06, 2.7583108066961598e-06, 1.3825681338607369e-05, -3.4912916073910143e-05, 0.9998518032557121, -5.379283121334686e-05, 2.8768846009467711e-05, 1.7994543668831008e-05, 3.3253712533602075e-05, 2.7745022202718664e-05, 3.0763209674774705e-05, 3.2412146102120108e-05, 3.1934875130914332e-05, 1.4060263749432519e-05, 6.566846542557047e-06, 3.3623138919137089e-06, 1.7675917240819939e-06], [5.6527831817600105e-08, 7.0655993259211665e-08, 3.5445110009595144e-07, 4.6582716810703943e-07, 2.3348993101361861e-06, -5.8961392923026245e-06, 0.99997497233816224, -9.0846039932323917e-06, 4.8585206273068221e-06, 3.0389422516464736e-06, 5.6159307908739169e-06, 4.6856159229878221e-06, 5.1953314041003751e-06, 5.4738059876230535e-06, 5.393203855471143e-06, 6.2081949073634622e-06, 6.5668464847735427e-06, 3.3623139143291814e-06, 1.7675916438288498e-06]], [[0.02174418168062359, 0.031147467290827801, 0.01345766345123627, -0.089364936223772534, 0.021357990878219536, 0.12532387148100169, -0.11514777652417678, 0.84183006404759875, -0.041323522993615677, -0.085338327769626174, -0.020084711220979063, -0.052033999200014912, -0.11470994438227142, 0.016430978544266946, 0.06140528382601769, 0.015977784466803657, 0.0255650852441918, -0.0035512392678025673, -0.0015200120380165776], [-0.0027203646121230648, -0.013626216760259989, 0.0040115835022789276, 0.0049358047578216919, 0.0078794359575004181, 0.011339721205576921, -0.036680706016373563, 0.98075546169339811, 0.025942045689876563, -0.030483545065827563, -0.055521291674074352, 0.056165502185771904, 0.073240168602216119, -0.12539529512288583, 0.05505416087180811, 0.082865211625712351, -0.019951914330638101, 0.029139154687447249, 0.005161800351914725], [0.006889614602302147, 0.0056559089708330323, 0.012542212525563711, -0.0084536889947097026, -0.031802471140585875, -0.010629339350137587, -0.019613739764089481, 0.9810120519821427, 0.054398853394984154, 0.026428037923233186, -0.12243853837500231, -0.077140798404519567, 0.13240693732780021, 0.093780658603028755, -0.061385746013099984, 0.043774877106894379, -0.01202193224222602, -0.0029680570045242981, 0.0063656175851084127], [-0.0011973405758071776, -0.001312025296174727, -0.002039621318831454, -0.0015647912919144998, 0.00022038584269719425, -6.9606871278696161e-05, 0.001510002435515013, 0.9985885137532946, -0.01450759729893362, -0.014727395212783243, 0.0012992895252932418, 0.0095157501288836259, 0.010656221670899708, -0.0040344833022103498, -0.014078834131966584, 0.03369318762389905, -0.0041723995024072107, -0.00023596283857600626, -0.00022821735016738116], [-0.00011670330961070292, -8.2553392559810552e-05, 0.00040018183245693449, 0.0002524336770119807, -0.00037734699624985201, -0.00029955984344229823, -0.00027342399877200105, 0.99977995173366085, 0.00099237716907838607, 0.0024995438666138296, 0.0032562138586418547, 0.0027365767699358079, 0.0017084377101671279, 0.0010965675119886395, 0.00014489190054208374, -0.00019933166437069783, 0.00089207348196161055, -0.00048381642914814945, -0.0035710232197622596], [9.4375492020670722e-08, 1.0828753360113337e-06, 1.2606728343737145e-06, 4.1996910967115006e-06, 6.6537070226891847e-06, 1.8224733777798248e-05, -4.4060442056151472e-05, 0.99981441397778426, -7.1806306950653653e-05, 2.8640432576173605e-05, 5.3072834224765562e-06, 2.653719101740222e-05, 1.5476557559389983e-05, 8.905847886707839e-06, 2.9851249110985054e-05, 1.5058445601000521e-05, 5.655314294664839e-06, 8.3642969408076277e-07, 5.571203898143058e-07], [9.4375491859205662e-08, 1.082875348464252e-06, 1.2606728259895177e-06, 4.1996911091634346e-06, 6.6537070282161594e-06, 1.8224733706783213e-05, -4.4060442059533905e-05, 0.99981441397800086, -7.1806307853698991e-05, 2.8640432374126374e-05, 5.3072834169129897e-06, 2.6537191058965537e-05, 1.5476557531922816e-05, 8.9058479097998748e-06, 2.9851249074729431e-05, 1.5058445645380242e-05, 5.6553142159912889e-06, 8.3642969975256177e-07, 5.5712038503517555e-07], [1.5938257439146163e-08, 1.8287741994942424e-07, 2.1290409016096505e-07, 7.0924937142643055e-07, 1.1236868057446208e-06, 3.0778171155577453e-06, -7.4409854987392032e-06, 0.99996865798746193, -1.2126743803374733e-05, 4.8368339794058666e-06, 8.963010199136885e-07, 4.4816358014926337e-06, 2.6137014919086166e-06, 1.5040313317992878e-06, 5.0413181899003597e-06, 6.6489339361553681e-06, 5.6553142238975046e-06, 8.3642969649707492e-07, 5.5712039436434911e-07]], [[0.057992720579730581, 0.0010174228730024635, -0.0056010168792851416, 0.034159195899092304, 0.017800210527119255, 0.029653928165809793, 0.054179143872484146, 0.06404502372347784, 0.92724893280555065, -0.039353875159397506, 0.15521075486557614, 0.0080392508129139353, -0.042263140984937719, 0.088100889842904234, 0.1769367255830224, 0.056632550131967781, 0.016163767948206759, 0.00032617100456590483, 0.0012594359416447224], [-0.0031876674180833183, 0.015470782086304249, -0.025955279209569162, -0.029387552766532148, 0.0045054876438239922, -0.012986336277300387, 0.013610962363687536, -0.0054323954022239109, 0.97382818362012591, 0.068174241550832987, 0.047205261568002442, -0.011845539408268387, 0.0088719235516895641, 0.011199441710611838, 0.026795800738826037, 0.043839386244278779, 0.052364573223954873, -0.011238945423455332, -0.013823004624326], [0.00306092792952438, -0.0022461113638823083, 0.00069271197182772142, 0.018352467837187879, 0.021491075361346149, -0.0022511617734070366, -0.0063409088815542221, 0.01471433561868608, 0.97699882081933609, -0.045443655272611627, 0.071946490945596228, 0.11804515870877531, -0.035955719141081047, -0.119843765411215, -0.060582798864415047, 0.0012821313190989252, -0.0042897244697692391, -0.0028639900633224058, -0.0041430848870492249], [8.9725677417801052e-05, 0.00031367434390265164, 0.00028698481198682592, 0.00031101967519573363, 0.00046451636460842797, 0.00053219622286174812, 0.00037237985345536665, -0.00029541480806418433, 0.99959981313835444, 0.000208698661625127, 0.00093199688635857371, 0.0022316200035851809, 0.0021442865906572332, 0.0018521732499867088, 0.00056696638222154567, -0.0038451531185381524, 0.0015837015812165617, 0.0032543208731385903, 0.0028670057729059499], [-3.933047833541213e-05, 2.5832583365130465e-06, 9.5477525065333003e-05, -3.0659030734880846e-05, -0.00015011150747538157, -3.4093217080572439e-06, -1.284697945270745e-06, -0.00020876571418284811, 0.99984325173321809, 0.0002136023664834079, 0.00028860673308262554, 0.00021092081106602033, 0.0001129278740563596, -0.00012825980511172082, -0.00024987864422836465, -0.00030757096860436708, -0.00057149083681552141, -0.00092291342660190032, -0.00083200586955262503], [1.2161311425373789e-07, 4.0777337735181225e-07, 1.8214638051750137e-06, 3.0297915590907187e-06, 9.2112637428260411e-06, 7.2220607289888463e-06, 1.8341257529020518e-05, -6.1512468897685277e-05, 0.9997725777975216, -8.0470242058666439e-05, 4.2160166459987683e-05, 1.0433189873165505e-05, 1.2489163721674618e-05, 1.1237987955950477e-05, 1.9734135766525275e-05, 9.1481676632371125e-06, 6.3496202429536495e-06, 2.2125404059378975e-06, 7.1548253770700817e-07], [1.2161311432644394e-07, 4.0777337962316646e-07, 1.8214637951360641e-06, 3.029791552785444e-06, 9.2112637897693863e-06, 7.2220607701147904e-06, 1.8341257539614495e-05, -6.1512468881709409e-05, 0.99977257779784279, -8.0470242804941402e-05, 4.2160166449559088e-05, 1.0433189909714622e-05, 1.2489163688347816e-05, 1.1237987989880115e-05, 1.9734135813489762e-05, 9.1481676337813758e-06, 6.3496202522417241e-06, 2.2125403509840418e-06, 7.1548254573867252e-07], [2.0538182658299339e-08, 6.8865305386843675e-08, 3.0761120837667166e-07, 5.1167518827932637e-07, 1.5556103649459472e-06, 1.2196711343595253e-06, 3.0974957123041235e-06, -1.0388306767187762e-05, 0.99996159263847328, -1.358992067124854e-05, 7.1200645359800193e-06, 1.7619708789423812e-06, 2.1091864251855195e-06, 1.8978862228136476e-06, 3.3327268520354461e-06, 4.0392989500654369e-06, 6.3496202642239258e-06, 2.2125403928004694e-06, 7.1548253032043756e-07]], [[0.010943294309790789, 0.0036407793991114074, 0.044466592375949639, 0.0029237888133062536, -0.063604503468721707, -0.016692625653653845, -0.031379812300240471, 0.015431021114524235, 0.12507818191275974, 0.9727164816729954, -0.0083926912461233412, 0.09969457931968416, -0.040203385211400128, 0.090255797932012674, -0.035150685782118413, -0.0076267587654001495, 0.0199765671361237, -7.5095425078219408e-05, 0.0032172275345728604], [0.0098815315964156276, 0.0023913389716896812, 0.00044908066957889903, 0.011327466621966532, 0.00078200110865665642, 0.0024129369670798538, 0.0050548184100238378, -0.023238528763643688, -0.025682773888659312, 0.96048017065802516, -0.003525089945066433, 0.076059710073868567, -0.113684032294023, -0.24878291587342141, 0.013315178325695178, -0.0027671568916583741, -0.013287817671011034, 0.002954567094845784, 0.01046406585852762], [0.00060497193995006358, -0.00085202043998737606, -0.00095908602448200025, -1.2764970091631459e-05, 0.00014974306212565329, 0.0013568753170360901, 0.00044353682117988653, -0.0013559992993003483, 0.00034775128019623398, 1.0005676775172583, -0.0021756383037415208, -0.0037453259869669811, -0.0047909375738274546, -0.0053484091046119061, -0.002459190178598161, -0.0008357548002827619, -0.0063537201266716942, 0.0076264259465449319, 0.0026988022017363556], [-9.7758791828332742e-05, -5.481509512164195e-05, 8.5701326300291445e-05, 1.4252028219120117e-05, -0.0001586676855343806, -0.00010407089312999747, -2.2567300985442796e-05, -2.757373054702688e-05, -4.3187709185884265e-05, 0.99982428417884484, 2.5513642681788797e-05, 0.00030153224190708586, 2.0641281515847927e-05, -0.0009021651404807076, -0.001010772346043308, 0.00034413042902242127, -0.000530076794495611, -0.0035058775763129419, -0.0019980418131301733], [1.2207028915499736e-07, 1.7638287670543903e-07, 5.0821324566827621e-07, 3.2433410885237466e-06, 3.156795592591169e-06, 6.4165949549074177e-06, 9.3468515961693215e-06, 2.7161756014803748e-05, -7.199777003866503e-05, 0.99972619647188443, -0.00010473812515079962, 3.4795405543453001e-05, 1.0886278484801356e-05, 4.8292106453856483e-05, 2.5018527684332946e-05, 8.6081268601001627e-06, 7.6357519405673278e-06, 5.4198093029769714e-06, 2.0825158139267536e-06], [1.2207028935194454e-07, 1.7638287558548704e-07, 5.0821324441003778e-07, 3.2433411143811112e-06, 3.1567955971785313e-06, 6.4165949629656962e-06, 9.3468516669961548e-06, 2.7161756113191209e-05, -7.1997770616423723e-05, 0.99972619647237371, -0.00010473812561620395, 3.4795405422601694e-05, 1.0886278490708859e-05, 4.8292106206484096e-05, 2.5018527961726052e-05, 8.6081269076442407e-06, 7.6357517897021778e-06, 5.4198093716006128e-06, 2.0825158153567964e-06], [1.2207029016166201e-07, 1.7638287691369267e-07, 5.0821324425779875e-07, 3.243341094758303e-06, 3.1567956040447794e-06, 6.4165949438633905e-06, 9.3468516692661218e-06, 2.7161756154422561e-05, -7.199776964780894e-05, 0.99972619647204897, -0.00010473812575744046, 3.4795405515510346e-05, 1.0886278518378766e-05, 4.8292106218169132e-05, 2.5018527772031058e-05, 8.6081269536916249e-06, 7.6357518306769951e-06, 5.4198093250658755e-06, 2.0825157823999946e-06], [2.061539140349665e-08, 2.9787772483403243e-08, 8.5827722436124827e-08, 5.477397267405866e-07, 5.3312380480077127e-07, 1.0836430314138326e-06, 1.5785086193851798e-06, 4.5871132545235135e-06, -1.2159078501628942e-05, 0.99995375969875133, -1.7688312640495673e-05, 5.8762939200701775e-06, 1.8384890739525954e-06, 8.1556346103555839e-06, 4.2251619768115278e-06, 3.8008482615220003e-06, 7.6357518617203901e-06, 5.4198093890524867e-06, 2.0825158350599288e-06]], [[-0.048337667651841623, -0.029580267540591117, -0.062606448798784173, -0.053157790343866224, 0.097905879441831475, 0.094886153313844535, -0.01078403962120989, -0.018045026379581181, -0.0062905708333295795, 0.072031691564192132, 1.0173234998776406, -0.008792770570986326, 0.17233710265489804, -0.051228627541601582, -0.10556547770793942, -0.065688271029466408, 0.0099072862992238258, -0.0074719992961263648, -0.0020637567626400756], [-0.0058807866882798999, -0.0051155242119340473, -0.015704205693962105, -0.018847525276481484, 0.0027714485076681806, 0.0045886634984310956, -0.00055998013808649478, 0.0056940949385650983, 0.0035274926940744075, 0.018415699905247222, 0.9911680379647333, -0.035593201612223624, 0.08274547045669324, 0.084796125642470438, -0.06647257611478842, -0.0032188920971793033, -0.0075221791669796527, 0.0082152533890988248, -0.0019643666098030144], [-0.00028561316368062064, -0.00014608467691934823, 0.00031079826113551121, 0.00057268610030050346, 0.00032351249562294701, -0.00010105899556605086, 0.00038261790986084506, 0.00091321928272503463, 5.9307601639269518e-05, -0.00025606276817026605, 0.99995917697285608, -0.0020045034685671039, -0.0015122989261745785, 0.0034813413627548017, 0.0017930140344051279, -0.0033084722801388637, -0.00078896590056897202, -0.0029491070330155962, 0.0027670342535960984], [8.2434317229404499e-06, 1.9827169447926138e-05, -4.4474555175680564e-06, -9.8622668698408687e-06, 1.7795884210120586e-05, 6.6270727090560156e-06, 1.6353906651631377e-05, 1.3063286193048323e-05, 1.272102012163582e-05, -8.0561213404317428e-05, 0.99966099949940912, -0.00012557451346049248, 0.00014363180746200369, 1.7822696242983941e-05, -0.00015922374446356176, -0.00011261459498116186, 0.00041052374853964746, 0.0010118606296236968, 0.0008304293884732741], [-2.4136947770080918e-07, -6.0214455549031209e-07, 1.9132654168810353e-06, 2.1236489724656285e-06, 2.6369917286357156e-06, 4.3539236445858077e-06, 1.3078417654945514e-05, 7.4601801550203511e-06, 2.3572593894281502e-05, -9.3186179809007038e-05, 0.99967521463900444, -0.00011700848799245774, 5.5314397301889643e-05, 2.1051433590727147e-05, 3.2468459996588144e-05, 1.0528322356441702e-05, 7.1123301861906439e-06, 1.6317137087228479e-06, 8.1194240105402599e-08], [-2.4136947875371274e-07, -6.0214455639051626e-07, 1.9132654215964592e-06, 2.1236489842705331e-06, 2.6369917500712603e-06, 4.3539236305070512e-06, 1.3078417620100374e-05, 7.4601801277360519e-06, 2.3572593924235555e-05, -9.3186179181435665e-05, 0.99967521463779951, -0.00011700848861377654, 5.5314397324862518e-05, 2.1051433684525041e-05, 3.2468459828122947e-05, 1.0528322410315801e-05, 7.1123302238259102e-06, 1.6317137050935713e-06, 8.1194240290195846e-08], [-2.4136947895771846e-07, -6.02144554661792e-07, 1.9132654106522612e-06, 2.1236489781502809e-06, 2.6369917344064371e-06, 4.3539236473285961e-06, 1.3078417729161513e-05, 7.4601801524861903e-06, 2.3572594019318984e-05, -9.3186179383035985e-05, 0.99967521463825837, -0.00011700848834275911, 5.531439732931705e-05, 2.1051433757567372e-05, 3.2468459870043272e-05, 1.0528322425259483e-05, 7.1123301053329575e-06, 1.6317137058174654e-06, 8.1194241386665504e-08], [-4.076279585142841e-08, -1.0169096623324074e-07, 3.2311478701294498e-07, 3.5864464034916105e-07, 4.4533864284939187e-07, 7.3529636756372788e-07, 2.2087004023524332e-06, 1.2598850582610043e-06, 3.9809706798535743e-06, -1.573740485133081e-05, 0.9999451498202595, -1.9760547834054397e-05, 9.3415683324827219e-06, 3.5551938878169161e-06, 5.4833162086600521e-06, 4.6486949413298823e-06, 7.1123301536021211e-06, 1.6317137279273483e-06, 8.119424186076803e-08]], [[0.047827899399020712, 0.025780564133932413, 0.045395836793489359, 0.030379005417335136, -0.073079060154600112, -0.072286018785736886, -0.008158475556719294, 0.022288309669432797, 0.015967461145764542, 0.022164488470682829, 0.092160902011536608, 0.98587070631791451, -0.10352550122143059, 0.1078147646961235, 0.10632452257896374, 0.021191314719782754, -0.0052573356023094637, 0.0046457018386733967, 0.0054957029143264946], [0.00016886168633453775, 0.00031717882796504488, -3.5176149535244379e-05, 0.00053216952861500797, 0.00089978710968492779, -0.00031805350276100703, 0.00012073396475610595, 0.00080573807597541678, -2.4860846178710288e-05, 0.00056007295012791732, -0.00083035899133505561, 0.99789932696545514, 0.0022354138824549142, 0.00085883993511167496, -0.0051341283157432145, -0.0024573186083181892, -0.0026030031599343223, -0.0066408212350790264, 0.0024726002325294], [-4.6088547525654887e-06, 8.1632854382897689e-05, -5.7337762817523561e-05, 7.900758134901481e-05, 0.00026381086162941415, -8.8432607940000827e-05, 9.3709573592047157e-05, 0.00038887718917638933, -5.718648259551084e-05, 9.6479675087459061e-05, 9.1558670054505526e-05, 0.99915495842661706, -0.00011434010839155802, 0.001313642023104575, 0.00060026454216888768, -0.00094842836009312846, -0.001438118339486661, -0.002882198911322431, -0.0035339774258024851], [1.1046751280148068e-07, 3.7199035970411627e-07, 3.7859049089600107e-07, 7.0386901368065914e-07, 4.1049045611967829e-06, 1.0029021366176479e-05, 4.4166830287789936e-06, 5.8316439607275179e-06, 2.8948878381097612e-06, 2.4821761833059082e-05, -0.00011349004720728821, 0.99962096903848452, -0.00013367958363958012, 6.6785452464547334e-05, 3.9049722660586413e-05, 2.8353513589130247e-05, 6.827567941351518e-06, 1.4933381487751254e-06, 1.1530033191417026e-06], [1.1046751185707111e-07, 3.719903605660885e-07, 3.7859049206287096e-07, 7.0386901673689314e-07, 4.1049045792264763e-06, 1.0029021383975452e-05, 4.4166830152762457e-06, 5.8316439284921671e-06, 2.8948878241589664e-06, 2.4821761778716128e-05, -0.00011349004739982271, 0.99962096903749798, -0.00013367958337506724, 6.6785452411607084e-05, 3.9049722396699106e-05, 2.8353513617450021e-05, 6.8275680175405112e-06, 1.493338158245991e-06, 1.1530033158989216e-06], [1.1046751259176722e-07, 3.7199036023595201e-07, 3.7859048942084528e-07, 7.0386901845485627e-07, 4.1049045684233512e-06, 1.0029021377547283e-05, 4.4166830219020195e-06, 5.8316439740350933e-06, 2.894887821872539e-06, 2.4821761717483561e-05, -0.00011349004720528055, 0.99962096903540154, -0.00013367958390981299, 6.6785452476612051e-05, 3.904972274788133e-05, 2.8353513395457275e-05, 6.8275680671585705e-06, 1.4933381356313139e-06, 1.1530033724089545e-06], [1.1046751196186983e-07, 3.7199036214829771e-07, 3.7859048778579672e-07, 7.0386901659637863e-07, 4.1049045801554801e-06, 1.0029021331997206e-05, 4.4166830012655678e-06, 5.831643962534362e-06, 2.8948878441687349e-06, 2.4821761719891452e-05, -0.0001134900476731758, 0.99962096903693365, -0.00013367958434444137, 6.6785452445487005e-05, 3.9049722551316967e-05, 2.8353513105160504e-05, 6.8275679427887702e-06, 1.4933381480678516e-06, 1.1530033312925128e-06], [1.8655899131818741e-08, 6.2822223395626504e-08, 6.393685965604424e-08, 1.1887033003835476e-07, 6.9324169447784361e-07, 1.6937143541400454e-06, 7.4589525973264007e-07, 9.8485571206956062e-07, 4.8889247411741063e-07, 4.1919318551202292e-06, -1.9166348815664255e-05, 0.99993598875110989, -2.2575984360034148e-05, 1.1278815212549058e-05, 6.5947685165510539e-06, 1.2519263108010785e-05, 6.8275680689070337e-06, 1.4933381336796342e-06, 1.1530033369285946e-06]]], prehc: 1, lambdahc: 1, rcut: 6.3110524197949553, dcut: 0.018905380302626437, rcut_in: 1.6000331351022747, dcut_in: 0.10000000000000001, inner_cutoff_type: zbl}
functions:
  0:
    - {mu0: 0, rank: 1, ndensity: 2, num_ms_combs: 1, mus: [0], ns: [1], ls: [0], ms_combs: [0], ctildes: [-0.14320515911086606, 0.024324456069029662]}
    - {mu0: 0, rank: 1, ndensity: 2, num_ms_combs: 1, mus: [0], ns: [2], ls: [0], ms_combs: [0], ctildes: [-0.21264431730308422, -0.32232884124887401]}
    - {mu0: 0, rank: 1, ndensity: 2, num_ms_combs: 1, mus: [0], ns: [3], ls: [0], ms_combs: [0], ctildes: [0.10368174983266037, 0.031356627959430117]}
    - {mu0: 0, rank: 1, ndensity: 2, num_ms_combs: 1, mus: [0], ns: [4], ls: [0], ms_combs: [0], ctildes: [-0.15627198484972873, -0.014974072728158174]}
    - {mu0: 0, rank: 1, ndensity: 2, num_ms_combs: 1, mus: [0], ns: [5], ls: [0], ms_combs: [0], ctildes: [-0.29328709900376898, -0.075781838025854628]}
    - {mu0: 0, rank: 1, ndensity: 2, num_ms_combs: 1, mus: [0], ns: [6], ls: [0], ms_combs: [0], ctildes: [0.17240019869676415, 0.11265424361828513]}
    - {mu0: 0, rank: 1, ndensity: 2, num_ms_combs: 1, mus: [0], ns: [7], ls: [0], ms_combs: [0], ctildes: [-0.057802724371394873, -0.075284867802092731]}
    - {mu0: 0, rank: 1, ndensity: 2, num_ms_combs: 1, mus: [0], ns: [8], ls: [0], ms_combs: [0], ctildes: [-0.16754802444739733, 0.050254691322480866]}
    - {mu0: 0, rank: 1, ndensity: 2, num_ms_combs: 1, mus: [0], ns: [9], ls: [0], ms_combs: [0], ctildes: [0.060187827864481666, 0.010393182124146251]}
    - {mu0: 0, rank: 1, ndensity: 2, num_ms_combs: 1, mus: [0], ns: [10], ls: [0], ms_combs: [0], ctildes: [0.034012763409727649, -0.055849265444875569]}
    - {mu0: 0, rank: 1, ndensity: 2, num_ms_combs: 1, mus: [0], ns: [11], ls: [0], ms_combs: [0], ctildes: [0.12395451919055751, 0.041280755202389115]}
    - {mu0: 0, rank: 1, ndensity: 2, num_ms_combs: 1, mus: [0], ns: [12], ls: [0], ms_combs: [0], ctildes: [-0.091921696863412408, -0.0320522693912468]}
    - {mu0: 0, rank: 1, ndensity: 2, num_ms_combs: 1, mus: [0], ns: [13], ls: [0], ms_combs: [0], ctildes: [-0.00026406298799496711, 0.024178450522423792]}
    - {mu0: 0, rank: 1, ndensity: 2, num_ms_combs: 1, mus: [0], ns: [14], ls: [0], ms_combs: [0], ctildes: [0.0069567132968557082, -0.0080097548587513591]}
    - {mu0: 0, rank: 1, ndensity: 2, num_ms_combs: 1, mus: [0], ns: [15], ls: [0], ms_combs: [0], ctildes: [-0.11004573044214187, 0.012473806542955098]}
    - {mu0: 0, rank: 1, ndensity: 2, num_ms_combs: 1, mus: [0], ns: [16], ls: [0], ms_combs: [0], ctildes: [-0.022142352811907025, 0.0058568340525464151]}
    - {mu0: 0, rank: 1, ndensity: 2, num_ms_combs: 1, mus: [0], ns: [17], ls: [0], ms_combs: [0], ctildes: [-0.0097680020040515174, 0.0018767700779889181]}
    - {mu0: 0, rank: 1, ndensity: 2, num_ms_combs: 1, mus: [0], ns: [18], ls: [0], ms_combs: [0], ctildes: [0.0034571230454704836, -0.00069317116405818774]}
    - {mu0: 0, rank: 1, ndensity: 2, num_ms_combs: 1, mus: [0], ns: [19], ls: [0], ms_combs: [0], ctildes: [0.00256108562845334, -0.0013361550699484215]}
    - {mu0: 0, rank: 2, ndensity: 2, num_ms_combs: 1, mus: [0, 0], ns: [1, 1], ls: [0, 0], ms_combs: [0, 0], ctildes: [-0.15383230043318308, 0.12423684956235996]}
    - {mu0: 0, rank: 2, ndensity: 2, num_ms_combs: 2, mus: [0, 0], ns: [1, 1], ls: [1, 1], ms_combs: [0, 0, 1, -1], ctildes: [0.013413410589197495, 0.026166288273140128, -0.026826821178394987, -0.052332576546280242]}
    - {mu0: 0, rank: 2, ndensity: 2, num_ms_combs: 3, mus: [0, 0], ns: [1, 1], ls: [2, 2], ms_combs: [0, 0, 1, -1, 2, -2], ctildes: [-0.026288026320677244, 0.012977204247280444, 0.052576052641354495, -0.02595440849456089, -0.052576052641354509, 0.025954408494560897]}
    - {mu0: 0, rank: 2, ndensity: 2, num_ms_combs: 4, mus: [0, 0], ns: [1, 1], ls: [3, 3], ms_combs: [0, 0, 1, -1, 2, -2, 3, -3], ctildes: [0.0051328115545527346, -0.0015549865111282686, -0.010265623109105469, 0.0031099730222565371, 0.010265623109105467, -0.0031099730222565367, -0.010265623109105467, 0.0031099730222565367]}
    - {mu0: 0, rank: 2, ndensity: 2, num_ms_combs: 5, mus: [0, 0], ns: [1, 1], ls: [4, 4], ms_combs: [0, 0, 1, -1, 2, -2, 3, -3, 4, -4], ctildes: [0.032867473886632227, -0.0052338582426632975, -0.06573494777326444, 0.010467716485326592, 0.06573494777326444, -0.010467716485326592, -0.065734947773264427, 0.01046771648532659, 0.06573494777326444, -0.010467716485326593]}
    - {mu0: 0, rank: 2, ndensity: 2, num_ms_combs: 6, mus: [0, 0], ns: [1, 1], ls: [5, 5], ms_combs: [0, 0, 1, -1, 2, -2, 3, -3, 4, -4, 5, -5], ctildes: [-0.027372411294081876, 0.001999724189616317, 0.054744822588163752, -0.0039994483792326341, -0.054744822588163766, 0.0039994483792326349, 0.054744822588163773, -0.0039994483792326349, -0.054744822588163766, 0.0039994483792326349, 0.054744822588163704, -0.0039994483792326297]}
    - {mu0: 0, rank: 2, ndensity: 2, num_ms_combs: 7, mus: [0, 0], ns: [1, 1], ls: [6, 6], ms_combs: [0, 0, 1, -1, 2, -2, 3, -3, 4, -4, 5, -5, 6, -6], ctildes: [0.020938450367805159, -0.0019608079621117338, -0.041876900735610324, 0.0039216159242234675, 0.04187690073561031, -0.0039216159242234667, -0.041876900735610324, 0.0039216159242234675, 0.041876900735610297, -0.0039216159242234658, -0.04187690073561031, 0.0039216159242234667, 0.041876900735610283, -0.0039216159242234641]}
    - {mu0: 0, rank: 2, ndensity: 2, num_ms_combs: 8, mus: [0, 0], ns: [1, 1], ls: [7, 7], ms_combs: [0, 0, 1, -1, 2, -2, 3, -3, 4, -4, 5, -5, 6, -6, 7, -7], ctildes: [0.001672322190950441, -0.00023640954769326548, -0.0033446443819008841, 0.00047281909538653128, 0.0033446443819008819, -0.00047281909538653095, -0.0033446443819008819, 0.00047281909538653095, 0.0033446443819008824, -0.00047281909538653106, -0.0033446443819008824, 0.00047281909538653106, 0.0033446443819008824, -0.00047281909538653106, -0.0033446443819008811, 0.00047281909538653084]}
    - {mu0: 0, rank: 2, ndensity: 2, num_ms_combs: 1, mus: [0, 0], ns: [1, 2], ls: [0, 0], ms_combs: [0, 0], ctildes: [-0.21427369408366076, -0.061757316808074086]}
    - {mu0: 0, rank: 2, ndensity: 2, num_ms_combs: 2, mus: [0, 0], ns: [1, 2], ls: [1, 1], ms_combs: [0, 0, 1, -1], ctildes: [-0.018364832381149537, -0.12426436204459877, 0.036729664762299059, 0.24852872408919749]}
    - {mu0: 0, rank: 2, ndensity: 2, num_ms_combs: 3, mus: [0, 0], ns: [1, 2], ls: [2, 2], ms_combs: [0, 0, 1, -1, 2, -2], ctildes: [-0.055179079683633392, -0.0057833703867985848, 0.1103581593672668, 0.01156674077359717, -0.11035815936726683, -0.011566740773597173]}
    - {mu0: 0, rank: 2, ndensity: 2, num_ms_combs: 4, mus: [0, 0], ns: [1, 2], ls: [3, 3], ms_combs: [0, 0, 1, -1, 2, -2, 3, -3], ctildes: [-0.012684140600543889, -0.0093296339969847122, 0.025368281201087778, 0.018659267993969424, -0.025368281201087774, -0.018659267993969421, 0.025368281201087774, 0.018659267993969421]}
    - {mu0: 0, rank: 2, ndensity: 2, num_ms_combs: 5, mus: [0, 0], ns: [1, 2], ls: [4, 4], ms_combs: [0, 0, 1, -1, 2, -2, 3, -3, 4, -4], ctildes: [0.057502192658563413, -0.009177901319231279, -0.11500438531712678, 0.018355802638462551, 0.11500438531712678, -0.018355802638462551, -0.11500438531712677, 0.018355802638462548, 0.11500438531712681, -0.018355802638462555]}
    - {mu0: 0, rank: 2, ndensity: 2, num_ms_combs: 6, mus: [0, 0], ns: [1, 2], ls: [5, 5], ms_combs: [0, 0, 1, -1, 2, -2, 3, -3, 4, -4, 5, -5], ctildes: [0.025859773125542416, -0.002403976418441952, -0.051719546251084832, 0.0048079528368839041, 0.051719546251084839, -0.0048079528368839049, -0.051719546251084846, 0.0048079528368839058, 0.051719546251084839, -0.0048079528368839049, -0.051719546251084783, 0.0048079528368838997]}
    - {mu0: 0, rank: 2, ndensity: 2, num_ms_combs: 7, mus: [0, 0], ns: [1, 2], ls: [6, 6], ms_combs: [0, 0, 1, -1, 2, -2, 3, -3, 4, -4, 5, -5, 6, -6], ctildes: [-0.0073274622067294, 0.00069407881133159944, 0.014654924413458803, -0.0013881576226631991, -0.014654924413458796, 0.0013881576226631987, 0.014654924413458803, -0.0013881576226631991, -0.014654924413458795, 0.0013881576226631982, 0.014654924413458796, -0.0013881576226631987, -0.014654924413458788, 0.0013881576226631978]}
    - {mu0: 0, rank: 2, ndensity: 2, num_ms_combs: 8, mus: [0, 0], ns: [1, 2], ls: [7, 7], ms_combs: [0, 0, 1, -1, 2, -2, 3, -3, 4, -4, 5, -5, 6, -6, 7, -7], ctildes: [-0.0033371506701988162, 0.00044680457067960435, 0.0066743013403976368, -0.00089360914135920935, -0.0066743013403976325, 0.0008936091413592087, 0.0066743013403976325, -0.0008936091413592087, -0.0066743013403976342, 0.00089360914135920891, 0.0066743013403976342, -0.00089360914135920891, -0.0066743013403976342, 0.00089360914135920891, 0.0066743013403976316, -0.00089360914135920859]}
    - {mu0: 0, rank: 2, ndensity: 2, num_ms_combs: 1, mus: [0, 0], ns: [1, 3], ls: [0, 0], ms_combs: [0, 0], ctildes: [0.18906379611538618, 0.20675817690170312]}
    - {mu0: 0, rank: 2, ndensity: 2, num_ms_combs: 2, mus: [0, 0], ns: [1, 3], ls: [1, 1], ms_combs: [0, 0, 1, -1], ctildes: [-0.030402145780956305, -0.024547182652311778, 0.060804291561912596, 0.049094365304623543]}
    - {mu0: 0, rank: 2, ndensity: 2, num_ms_combs: 3, mus: [0, 0], ns: [1, 3], ls: [2, 2], ms_combs: [0, 0, 1, -1, 2, -2], ctildes: [0.035656821232506762, 0.0088908317812615486, -0.071313642465013538, -0.017781663562523101, 0.071313642465013552, 0.017781663562523104]}
    - {mu0: 0, rank: 2, ndensity: 2, num_ms_combs: 4, mus: [0, 0], ns: [1, 3], ls: [3, 3], ms_combs: [0, 0, 1, -1, 2, -2, 3, -3], ctildes: [0.12936388941560709, 0.0067490979163917454, -0.25872777883121417, -0.013498195832783491, 0.25872777883121417, 0.013498195832783489, -0.25872777883121417, -0.013498195832783489]}
    - {mu0: 0, rank: 2, ndensity: 2, num_ms_combs: 5, mus: [0, 0], ns: [1, 3], ls: [4, 4], ms_combs: [0, 0, 1, -1, 2, -2, 3, -3, 4, -4], ctildes: [-0.044765748101873691, 0.0045010460546738868, 0.089531496203747354, -0.0090020921093477702, -0.089531496203747354, 0.0090020921093477702, 0.089531496203747341, -0.0090020921093477684, -0.089531496203747368, 0.0090020921093477719]}
    - {mu0: 0, rank: 2, ndensity: 2, num_ms_combs: 6, mus: [0, 0], ns: [1, 3], ls: [5, 5], ms_combs: [0, 0, 1, -1, 2, -2, 3, -3, 4, -4, 5, -5], ctildes: [-0.023033022918371102, 0.0015078386834171821, 0.046066045836742203, -0.0030156773668343641, -0.04606604583674221, 0.0030156773668343646, 0.046066045836742217, -0.0030156773668343654, -0.04606604583674221, 0.0030156773668343646, 0.046066045836742162, -0.0030156773668343615]}
    - {mu0: 0, rank: 2, ndensity: 2, num_ms_combs: 7, mus: [0, 0], ns: [1, 3], ls: [6, 6], ms_combs: [0, 0, 1, -1, 2, -2, 3, -3, 4, -4, 5, -5, 6, -6], ctildes: [0.007080938204274136, -0.00060134856929124091, -0.014161876408548275, 0.0012026971385824823, 0.01416187640854827, -0.0012026971385824816, -0.014161876408548275, 0.0012026971385824823, 0.014161876408548267, -0.0012026971385824814, -0.01416187640854827, 0.0012026971385824816, 0.014161876408548262, -0.001202697138582481]}
    - {mu0: 0, rank: 2, ndensity: 2, num_ms_combs: 8, mus: [0, 0], ns: [1, 3], ls: [7, 7], ms_combs: [0, 0, 1, -1, 2, -2, 3, -3, 4, -4, 5, -5, 6, -6, 7, -7], ctildes: [0.0011815312263748648, -0.0001719342840780412, -0.0023630624527497309, 0.00034386856815608261, 0.0023630624527497296, -0.0003438685681560824, -0.0023630624527497296, 0.0003438685681560824, 0.00236306245274973, -0.00034386856815608245, -0.00236306245274973, 0.00034386856815608245, 0.00236306245274973, -0.00034386856815608245, -0.0023630624527497287, 0.00034386856815608234]}
    - {mu0: 0, rank: 2, ndensity: 2, num_ms_combs: 1, mus: [0, 0], ns: [1, 4], ls: [0, 0], ms_combs: [0, 0], ctildes: [-0.07834647761465785, -0.18104344964005295]}
    - {mu0: 0, rank: 2, ndensity: 2, num_ms_combs: 2, mus: [0, 0], ns: [1, 4], ls: [1, 1], ms_combs: [0, 0, 1, -1], ctildes: [-0.031964670267872614, 0.020360003429081217, 0.063929340535745213, -0.040720006858162426]}
    - {mu0: 0, rank: 2, ndensity: 2, num_ms_combs: 3, mus: [0, 0], ns: [1, 4], ls: [2, 2], ms_combs: [0, 0, 1, -1, 2, -2], ctildes: [0.0107576639951996, -0.025004623060261095, -0.021515327990399204, 0.050009246120522197, 0.021515327990399211, -0.050009246120522211]}
    - {mu0: 0, rank: 2, ndensity: 2, num_ms_combs: 4, mus: [0, 0], ns: [1, 4], ls: [3, 3], ms_combs: [0, 0, 1, -1, 2, -2, 3, -3], ctildes: [0.025243983646237318, -0.010391186966036435, -0.050487967292474636, 0.02078237393207287, 0.050487967292474629, -0.020782373932072867, -0.050487967292474629, 0.020782373932072867]}
    - {mu0: 0, rank: 2, ndensity: 2, num_ms_combs: 5, mus: [0, 0], ns: [1, 4], ls: [4, 4], ms_combs: [0, 0, 1, -1, 2, -2, 3, -3, 4, -4], ctildes: [-0.030971171979220797, 0.0051648364309030198, 0.061942343958441573, -0.010329672861806036, -0.061942343958441573, 0.010329672861806036, 0.061942343958441566, -0.010329672861806034, -0.061942343958441587, 0.010329672861806038]}
    - {mu0: 0, rank: 2, ndensity: 2, num_ms_combs: 6, mus: [0, 0], ns: [1, 4], ls: [5, 5], ms_combs: [0, 0, 1, -1, 2, -2, 3, -3, 4, -4, 5, -5], ctildes: [0.0037938574845121933, -7.4337825730533662e-05, -0.0075877149690243865, 0.00014867565146106732, 0.0075877149690243874, -0.00014867565146106735, -0.0075877149690243891, 0.00014867565146106738, 0.0075877149690243874, -0.00014867565146106735, -0.0075877149690243796, 0.00014867565146106719]}
    - {mu0: 0, rank: 2, ndensity: 2, num_ms_combs: 7, mus: [0, 0], ns: [1, 4], ls: [6, 6], ms_combs: [0, 0, 1, -1, 2, -2, 3, -3, 4, -4, 5, -5, 6, -6], ctildes: [0.00026807998126591716, -1.3546470460934882e-05, -0.00053615996253183443, 2.7092940921869771e-05, 0.00053615996253183421, -2.709294092186976e-05, -0.00053615996253183443, 2.7092940921869771e-05, 0.0005361599625318341, -2.7092940921869754e-05, -0.00053615996253183421, 2.709294092186976e-05, 0.00053615996253183389, -2.7092940921869744e-05]}
    - {mu0: 0, rank: 2, ndensity: 2, num_ms_combs: 1, mus: [0, 0], ns: [1, 5], ls: [0, 0], ms_combs: [0, 0], ctildes: [-0.16445400156598988, 0.13255804722754957]}
    - {mu0: 0, rank: 2, ndensity: 2, num_ms_combs: 2, mus: [0, 0], ns: [1, 5], ls: [1, 1], ms_combs: [0, 0, 1, -1], ctildes: [-0.025432631967094149, -0.01461028399224145, 0.050865263934188283, 0.029220567984482897]}
    - {mu0: 0, rank: 2, ndensity: 2, num_ms_combs: 3, mus: [0, 0], ns: [1, 5], ls: [2, 2], ms_combs: [0, 0, 1, -1, 2, -2], ctildes: [-0.064922917114197176, 0.0198479058954729, 0.12984583422839435, -0.039695811790945799, -0.12984583422839438, 0.039695811790945813]}
    - {mu0: 0, rank: 2, ndensity: 2, num_ms_combs: 4, mus: [0, 0], ns: [1, 5], ls: [3, 3], ms_combs: [0, 0, 1, -1, 2, -2, 3, -3], ctildes: [-0.040931422472606498, 0.0098627282308876504, 0.081862844945212995, -0.019725456461775301, -0.081862844945212981, 0.019725456461775301, 0.081862844945212981, -0.019725456461775301]}
    - {mu0: 0, rank: 2, ndensity: 2, num_ms_combs: 5, mus: [0, 0], ns: [1, 5], ls: [4, 4], ms_combs: [0, 0, 1, -1, 2, -2, 3, -3, 4, -4], ctildes: [-0.02062993661425579, 0.0012671139335293602, 0.041259873228511566, -0.0025342278670587195, -0.041259873228511566, 0.0025342278670587195, 0.041259873228511559, -0.0025342278670587191, -0.041259873228511573, 0.00253422786705872]}
    - {mu0: 0, rank: 2, ndensity: 2, num_ms_combs: 6, mus: [0, 0], ns: [1, 5], ls: [5, 5], ms_combs: [0, 0, 1, -1, 2, -2, 3, -3, 4, -4, 5, -5], ctildes: [-0.00037831160089433932, -0.00025992978701248957, 0.00075662320178867864, 0.00051985957402497915, -0.00075662320178867875, -0.00051985957402497925, 0.00075662320178867897, 0.00051985957402497925, -0.00075662320178867875, -0.00051985957402497925, 0.00075662320178867799, 0.0005198595740249786]}
    - {mu0: 0, rank: 2, ndensity: 2, num_ms_combs: 7, mus: [0, 0], ns: [1, 5], ls: [6, 6], ms_combs: [0, 0, 1, -1, 2, -2, 3, -3, 4, -4, 5, -5, 6, -6], ctildes: [-0.0025482852432976381, 0.00021400634670926282, 0.005096570486595277, -0.00042801269341852569, -0.0050965704865952753, 0.00042801269341852553, 0.005096570486595277, -0.00042801269341852569, -0.0050965704865952744, 0.00042801269341852542, 0.0050965704865952753, -0.00042801269341852553, -0.0050965704865952718, 0.00042801269341852526]}
    - {mu0: 0, rank: 2, ndensity: 2, num_ms_combs: 1, mus: [0, 0], ns: [1, 6], ls: [0, 0], ms_combs: [0, 0], ctildes: [0.2266223379497973, -0.18424348330036189]}
    - {mu0: 0, rank: 2, ndensity: 2, num_ms_combs: 2, mus: [0, 0], ns: [1, 6], ls: [1, 1], ms_combs: [0, 0, 1, -1], ctildes: [0.056376543502471038, -0.0081760089282661274, -0.11275308700494205, 0.016352017856532251]}
    - {mu0: 0, rank: 2, ndensity: 2, num_ms_combs: 3, mus: [0, 0], ns: [1, 6], ls: [2, 2], ms_combs: [0, 0, 1, -1, 2, -2], ctildes: [0.12382596034152586, -0.027091575070363881, -0.24765192068305175, 0.054183150140727769, 0.24765192068305181, -0.054183150140727783]}
    - {mu0: 0, rank: 2, ndensity: 2, num_ms_combs: 4, mus: [0, 0], ns: [1, 6], ls: [3, 3], ms_combs: [0, 0, 1, -1, 2, -2, 3, -3], ctildes: [-0.053700019340421394, 0.0075457466615764402, 0.10740003868084279, -0.01509149332315288, -0.10740003868084277, 0.015091493323152879, 0.10740003868084277, -0.015091493323152879]}
    - {mu0: 0, rank: 2, ndensity: 2, num_ms_combs: 5, mus: [0, 0], ns: [1, 6], ls: [4, 4], ms_combs: [0, 0, 1, -1, 2, -2, 3, -3, 4, -4], ctildes: [-0.00049190398133886946, 0.00093615591989761439, 0.00098380796267773848, -0.0018723118397952281, -0.00098380796267773848, 0.0018723118397952281, 0.00098380796267773848, -0.0018723118397952277, -0.00098380796267773869, 0.0018723118397952284]}
    - {mu0: 0, rank: 2, ndensity: 2, num_ms_combs: 6, mus: [0, 0], ns: [1, 6], ls: [5, 5], ms_combs: [0, 0, 1, -1, 2, -2, 3, -3, 4, -4, 5, -5], ctildes: [0.0019902973190542642, -0.00012116122117780982, -0.0039805946381085283, 0.00024232244235561964, 0.0039805946381085283, -0.00024232244235561967, -0.0039805946381085292, 0.00024232244235561972, 0.0039805946381085283, -0.00024232244235561967, -0.003980594638108524, 0.00024232244235561939]}
    - {mu0: 0, rank: 2, ndensity: 2, num_ms_combs: 1, mus: [0, 0], ns: [1, 7], ls: [0, 0], ms_combs: [0, 0], ctildes: [-0.17737543324783803, -0.015228552651634772]}
    - {mu0: 0, rank: 2, ndensity: 2, num_ms_combs: 2, mus: [0, 0], ns: [1, 7], ls: [1, 1], ms_combs: [0, 0, 1, -1], ctildes: [-0.053228169928841197, -0.0038455387024300034, 0.10645633985768238, 0.0076910774048600051]}
    - {mu0: 0, rank: 2, ndensity: 2, num_ms_combs: 3, mus: [0, 0], ns: [1, 7], ls: [2, 2], ms_combs: [0, 0, 1, -1, 2, -2], ctildes: [-0.063028096678131293, 0.01017885215067945, 0.12605619335626259, -0.0203577043013589, -0.12605619335626261, 0.020357704301358907]}
    - {mu0: 0, rank: 2, ndensity: 2, num_ms_combs: 4, mus: [0, 0], ns: [1, 7], ls: [3, 3], ms_combs: [0, 0, 1, -1, 2, -2, 3, -3], ctildes: [0.0076811954548422628, -0.00012623315015292659, -0.015362390909684526, 0.00025246630030585317, 0.015362390909684524, -0.00025246630030585317, -0.015362390909684524, 0.00025246630030585317]}
    - {mu0: 0, rank: 2, ndensity: 2, num_ms_combs: 5, mus: [0, 0], ns: [1, 7], ls: [4, 4], ms_combs: [0, 0, 1, -1, 2, -2, 3, -3, 4, -4], ctildes: [-0.0003654008727732952, 0.00022770627875000549, 0.00073080174554659017, -0.00045541255750001082, -0.00073080174554659017, 0.00045541255750001082, 0.00073080174554658996, -0.00045541255750001077, -0.00073080174554659028, 0.00045541255750001093]}
    - {mu0: 0, rank: 2, ndensity: 2, num_ms_combs: 6, mus: [0, 0], ns: [1, 7], ls: [5, 5], ms_combs: [0, 0, 1, -1, 2, -2, 3, -3, 4, -4, 5, -5], ctildes: [-0.00062720562272412079, -5.9154626402015371e-05, 0.0012544112454482416, 0.00011830925280403074, -0.0012544112454482418, -0.00011830925280403076, 0.001254411245448242, 0.00011830925280403078, -0.0012544112454482418, -0.00011830925280403076, 0.0012544112454482405, 0.00011830925280403063]}
    - {mu0: 0, rank: 2, ndensity: 2, num_ms_combs: 1, mus: [0, 0], ns: [1, 8], ls: [0, 0], ms_combs: [0, 0], ctildes: [0.15756665696850444, 0.042583092143617669]}
    - {mu0: 0, rank: 2, ndensity: 2, num_ms_combs: 2, mus: [0, 0], ns: [1, 8], ls: [1, 1], ms_combs: [0, 0, 1, -1], ctildes: [-0.047053602248667607, 0.0063289981774579656, 0.094107204497335201, -0.012657996354915929]}
    - {mu0: 0, rank: 2, ndensity: 2, num_ms_combs: 3, mus: [0, 0], ns: [1, 8], ls: [2, 2], ms_combs: [0, 0, 1, -1, 2, -2], ctildes: [-0.011891759629284064, -4.6976054102741701e-05, 0.023783519258568132, 9.3952108205483403e-05, -0.023783519258568139, -9.395210820548343e-05]}
    - {mu0: 0, rank: 2, ndensity: 2, num_ms_combs: 4, mus: [0, 0], ns: [1, 8], ls: [3, 3], ms_combs: [0, 0, 1, -1, 2, -2, 3, -3], ctildes: [0.0062868179594743941, 0.00029181383405279789, -0.012573635918948788, -0.00058362766810559578, 0.012573635918948787, 0.00058362766810559567, -0.012573635918948787, -0.00058362766810559567]}
    - {mu0: 0, rank: 2, ndensity: 2, num_ms_combs: 5, mus: [0, 0], ns: [1, 8], ls: [4, 4], ms_combs: [0, 0, 1, -1, 2, -2, 3, -3, 4, -4], ctildes: [-0.001704613006679432, 0.0003699471897548572, 0.0034092260133588626, -0.00073989437950971418, -0.0034092260133588626, 0.00073989437950971418, 0.0034092260133588622, -0.00073989437950971407, -0.0034092260133588631, 0.00073989437950971429]}
    - {mu0: 0, rank: 2, ndensity: 2, num_ms_combs: 1, mus: [0, 0], ns: [1, 9], ls: [0, 0], ms_combs: [0, 0], ctildes: [0.17596050946400341, -0.053605960798563897]}
    - {mu0: 0, rank: 2, ndensity: 2, num_ms_combs: 2, mus: [0, 0], ns: [1, 9], ls: [1, 1], ms_combs: [0, 0, 1, -1], ctildes: [0.015975408544191872, -0.004026150949069331, -0.031950817088383737, 0.0080523018981386602]}
    - {mu0: 0, rank: 2, ndensity: 2, num_ms_combs: 3, mus: [0, 0], ns: [1, 9], ls: [2, 2], ms_combs: [0, 0, 1, -1, 2, -2], ctildes: [-0.020218228390738901, 0.0016743444621891152, 0.040436456781477809, -0.0033486889243782309, -0.040436456781477823, 0.0033486889243782318]}
    - {mu0: 0, rank: 2, ndensity: 2, num_ms_combs: 4, mus: [0, 0], ns: [1, 9], ls: [3, 3], ms_combs: [0, 0, 1, -1, 2, -2, 3, -3], ctildes: [0.0003435775169106475, -0.0001452712568839178, -0.000687155033821295, 0.00029054251376783559, 0.00068715503382129489, -0.00029054251376783559, -0.00068715503382129489, 0.00029054251376783559]}
    - {mu0: 0, rank: 2, ndensity: 2, num_ms_combs: 5, mus: [0, 0], ns: [1, 9], ls: [4, 4], ms_combs: [0, 0, 1, -1, 2, -2, 3, -3, 4, -4], ctildes: [-0.0075458578096708681, 0.00067223975337625899, 0.015091715619341731, -0.0013444795067525175, -0.015091715619341731, 0.0013444795067525175, 0.015091715619341728, -0.0013444795067525173, -0.015091715619341733, 0.0013444795067525178]}
    - {mu0: 0, rank: 2, ndensity: 2, num_ms_combs: 1, mus: [0, 0], ns: [1, 10], ls: [0, 0], ms_combs: [0, 0], ctildes: [-0.23325094008073982, 0.056664310293253903]}
    - {mu0: 0, rank: 2, ndensity: 2, num_ms_combs: 2, mus: [0, 0], ns: [1, 10], ls: [1, 1], ms_combs: [0, 0, 1, -1], ctildes: [0.019334301668845821, -0.00075329338006449933, -0.038668603337691627, 0.0015065867601289982]}
    - {mu0: 0, rank: 2, ndensity: 2, num_ms_combs: 3, mus: [0, 0], ns: [1, 10], ls: [2, 2], ms_combs: [0, 0, 1, -1, 2, -2], ctildes: [0.016601511069130128, -0.0013640077649852778, -0.033203022138260263, 0.002728015529970556, 0.03320302213826027, -0.0027280155299705565]}
    - {mu0: 0, rank: 2, ndensity: 2, num_ms_combs: 4, mus: [0, 0], ns: [1, 10], ls: [3, 3], ms_combs: [0, 0, 1, -1, 2, -2, 3, -3], ctildes: [-0.0029257171955166983, 0.0001616114456808364, 0.0058514343910333966, -0.0003232228913616728, -0.0058514343910333957, 0.00032322289136167275, 0.0058514343910333957, -0.00032322289136167275]}
    - {mu0: 0, rank: 2, ndensity: 2, num_ms_combs: 1, mus: [0, 0], ns: [1, 11], ls: [0, 0], ms_combs: [0, 0], ctildes: [0.12535302671202819, -0.023920729180504981]}
    - {mu0: 0, rank: 2, ndensity: 2, num_ms_combs: 2, mus: [0, 0], ns: [1, 11], ls: [1, 1], ms_combs: [0, 0, 1, -1], ctildes: [0.015891770688982069, -0.0012684509433112008, -0.031783541377964131, 0.0025369018866224012]}
    - {mu0: 0, rank: 2, ndensity: 2, num_ms_combs: 3, mus: [0, 0], ns: [1, 11], ls: [2, 2], ms_combs: [0, 0, 1, -1, 2, -2], ctildes: [-0.018376584925583452, 0.00081005373535889013, 0.03675316985116691, -0.0016201074707177805, -0.036753169851166917, 0.0016201074707177809]}
    - {mu0: 0, rank: 2, ndensity: 2, num_ms_combs: 4, mus: [0, 0], ns: [1, 11], ls: [3, 3], ms_combs: [0, 0, 1, -1, 2, -2, 3, -3], ctildes: [0.00048625972592426813, -2.3076460165089644e-05, -0.00097251945184853627, 4.6152920330179289e-05, 0.00097251945184853616, -4.6152920330179282e-05, -0.00097251945184853616, 4.6152920330179282e-05]}
    - {mu0: 0, rank: 2, ndensity: 2, num_ms_combs: 1, mus: [0, 0], ns: [1, 12], ls: [0, 0], ms_combs: [0, 0], ctildes: [-0.11829659213939037, 0.023832526885043375]}
    - {mu0: 0, rank: 2, ndensity: 2, num_ms_combs: 2, mus: [0, 0], ns: [1, 12], ls: [1, 1], ms_combs: [0, 0, 1, -1], ctildes: [0.0053205779764685882, -0.0010226769523174577, -0.010641155952937173, 0.0020453539046349149]}
    - {mu0: 0, rank: 2, ndensity: 2, num_ms_combs: 3, mus: [0, 0], ns: [1, 12], ls: [2, 2], ms_combs: [0, 0, 1, -1, 2, -2], ctildes: [-0.0082030797222474236, 0.0010298890792979089, 0.016406159444494851, -0.0020597781585958183, -0.016406159444494854, 0.0020597781585958187]}
    - {mu0: 0, rank: 2, ndensity: 2, num_ms_combs: 1, mus: [0, 0], ns: [2, 2], ls: [0, 0], ms_combs: [0, 0], ctildes: [-0.2544645364200655, -0.071116584700539748]}
    - {mu0: 0, rank: 2, ndensity: 2, num_ms_combs: 2, mus: [0, 0], ns: [2, 2], ls: [1, 1], ms_combs: [0, 0, 1, -1], ctildes: [0.039646997467644288, 0.036799051976205317, -0.079293994935288561, -0.073598103952410621]}
    - {mu0: 0, rank: 2, ndensity: 2, num_ms_combs: 3, mus: [0, 0], ns: [2, 2], ls: [2, 2], ms_combs: [0, 0, 1, -1, 2, -2], ctildes: [-0.0032391900109256335, 0.0026595076571719915, 0.0064783800218512679, -0.0053190153143439839, -0.0064783800218512697, 0.0053190153143439856]}
    - {mu0: 0, rank: 2, ndensity: 2, num_ms_combs: 4, mus: [0, 0], ns: [2, 2], ls: [3, 3], ms_combs: [0, 0, 1, -1, 2, -2, 3, -3], ctildes: [0.077441804738667214, -0.0062645925802424923, -0.15488360947733443, 0.012529185160484985, 0.1548836094773344, -0.012529185160484983, -0.1548836094773344, 0.012529185160484983]}
    - {mu0: 0, rank: 2, ndensity: 2, num_ms_combs: 5, mus: [0, 0], ns: [2, 2], ls: [4, 4], ms_combs: [0, 0, 1, -1, 2, -2, 3, -3, 4, -4], ctildes: [0.022011671506398371, 7.573638791513977e-05, -0.044023343012796728, -0.00015147277583027949, 0.044023343012796728, 0.00015147277583027949, -0.044023343012796722, -0.00015147277583027946, 0.044023343012796735, 0.00015147277583027951]}
    - {mu0: 0, rank: 2, ndensity: 2, num_ms_combs: 6, mus: [0, 0], ns: [2, 2], ls: [5, 5], ms_combs: [0, 0, 1, -1, 2, -2, 3, -3, 4, -4, 5, -5], ctildes: [-0.0066674033411307319, 0.00041384870291038449, 0.013334806682261464, -0.00082769740582076898, -0.013334806682261467, 0.00082769740582076909, 0.013334806682261469, -0.0008276974058207692, -0.013334806682261467, 0.00082769740582076909, 0.013334806682261452, -0.00082769740582076823]}
    - {mu0: 0, rank: 2, ndensity: 2, num_ms_combs: 7, mus: [0, 0], ns: [2, 2], ls: [6, 6], ms_combs: [0, 0, 1, -1, 2, -2, 3, -3, 4, -4, 5, -5, 6, -6], ctildes: [0.0015873775374078683, -0.00056148566033078085, -0.003174755074815737, 0.0011229713206615619, 0.0031747550748157357, -0.0011229713206615615, -0.003174755074815737, 0.0011229713206615619, 0.0031747550748157352, -0.0011229713206615613, -0.0031747550748157357, 0.0011229713206615615, 0.0031747550748157339, -0.0011229713206615608]}
    - {mu0: 0, rank: 2, ndensity: 2, num_ms_combs: 8, mus: [0, 0], ns: [2, 2], ls: [7, 7], ms_combs: [0, 0, 1, -1, 2, -2, 3, -3, 4, -4, 5, -5, 6, -6, 7, -7], ctildes: [0.0017743701441718977, -0.0002126041348488243, -0.0035487402883437979, 0.00042520826969764887, 0.0035487402883437953, -0.0004252082696976486, -0.0035487402883437953, 0.0004252082696976486, 0.0035487402883437962, -0.00042520826969764865, -0.0035487402883437962, 0.00042520826969764865, 0.0035487402883437962, -0.00042520826969764865, -0.0035487402883437949, 0.00042520826969764849]}
    - {mu0: 0, rank: 2, ndensity: 2, num_ms_combs: 1, mus: [0, 0], ns: [2, 3], ls: [0, 0], ms_combs: [0, 0], ctildes: [0.13278115845187094, 0.14922972560937123]}
    - {mu0: 0, rank: 2, ndensity: 2, num_ms_combs: 2, mus: [0, 0], ns: [2, 3], ls: [1, 1], ms_combs: [0, 0, 1, -1], ctildes: [-0.0064680913234949578, -0.0095477722586141314, 0.012936182646989914, 0.019095544517228259]}
    - {mu0: 0, rank: 2, ndensity: 2, num_ms_combs: 3, mus: [0, 0], ns: [2, 3], ls: [2, 2], ms_combs: [0, 0, 1, -1, 2, -2], ctildes: [0.024364137584139623, -0.030780688196776981, -0.048728275168279253, 0.061561376393553968, 0.048728275168279267, -0.061561376393553989]}
    - {mu0: 0, rank: 2, ndensity: 2, num_ms_combs: 4, mus: [0, 0], ns: [2, 3], ls: [3, 3], ms_combs: [0, 0, 1, -1, 2, -2, 3, -3], ctildes: [-0.0085433810718380781, -0.016899402564600083, 0.017086762143676156, 0.033798805129200166, -0.017086762143676153, -0.033798805129200159, 0.017086762143676153, 0.033798805129200159]}
    - {mu0: 0, rank: 2, ndensity: 2, num_ms_combs: 5, mus: [0, 0], ns: [2, 3], ls: [4, 4], ms_combs: [0, 0, 1, -1, 2, -2, 3, -3, 4, -4], ctildes: [0.028927209318056958, -0.007437421749257934, -0.057854418636113895, 0.014874843498515863, 0.057854418636113895, -0.014874843498515863, -0.057854418636113888, 0.014874843498515861, 0.057854418636113909, -0.014874843498515866]}
    - {mu0: 0, rank: 2, ndensity: 2, num_ms_combs: 6, mus: [0, 0], ns: [2, 3], ls: [5, 5], ms_combs: [0, 0, 1, -1, 2, -2, 3, -3, 4, -4, 5, -5], ctildes: [-0.013789393497786845, 0.0011529517791505138, 0.02757878699557369, -0.0023059035583010276, -0.027578786995573694, 0.002305903558301028, 0.027578786995573701, -0.0023059035583010284, -0.027578786995573694, 0.002305903558301028, 0.027578786995573666, -0.0023059035583010254]}
    - {mu0: 0, rank: 2, ndensity: 2, num_ms_combs: 7, mus: [0, 0], ns: [2, 3], ls: [6, 6], ms_combs: [0, 0, 1, -1, 2, -2, 3, -3, 4, -4, 5, -5, 6, -6], ctildes: [-0.0040652501569500912, 0.00034166584490162626, 0.0081305003139001842, -0.00068333168980325273, -0.0081305003139001825, 0.00068333168980325241, 0.0081305003139001842, -0.00068333168980325273, -0.0081305003139001807, 0.0006833316898032523, 0.0081305003139001825, -0.00068333168980325241, -0.0081305003139001773, 0.00068333168980325197]}
    - {mu0: 0, rank: 2, ndensity: 2, num_ms_combs: 1, mus: [0, 0], ns: [2, 4], ls: [0, 0], ms_combs: [0, 0], ctildes: [-0.11049626090573239, -0.04945974675393032]}
    - {mu0: 0, rank: 2, ndensity: 2, num_ms_combs: 2, mus: [0, 0], ns: [2, 4], ls: [1, 1], ms_combs: [0, 0, 1, -1], ctildes: [-0.016075603139111865, 0.068147261228261369, 0.032151206278223723, -0.13629452245652271]}
    - {mu0: 0, rank: 2, ndensity: 2, num_ms_combs: 3, mus: [0, 0], ns: [2, 4], ls: [2, 2], ms_combs: [0, 0, 1, -1, 2, -2], ctildes: [-0.0131929845725302, 0.044352236012555231, 0.026385969145060403, -0.088704472025110462, -0.02638596914506041, 0.08870447202511049]}
    - {mu0: 0, rank: 2, ndensity: 2, num_ms_combs: 4, mus: [0, 0], ns: [2, 4], ls: [3, 3], ms_combs: [0, 0, 1, -1, 2, -2, 3, -3], ctildes: [-0.067993994619678783, 0.009732925861196836, 0.13598798923935757, -0.019465851722393672, -0.13598798923935757, 0.019465851722393668, 0.13598798923935757, -0.019465851722393668]}
    - {mu0: 0, rank: 2, ndensity: 2, num_ms_combs: 5, mus: [0, 0], ns: [2, 4], ls: [4, 4], ms_combs: [0, 0, 1, -1, 2, -2, 3, -3, 4, -4], ctildes: [-0.002121259386178007, 0.00088493002691805603, 0.0042425187723560123, -0.0017698600538361116, -0.0042425187723560123, 0.0017698600538361116, 0.0042425187723560114, -0.0017698600538361112, -0.0042425187723560132, 0.0017698600538361118]}
    - {mu0: 0, rank: 2, ndensity: 2, num_ms_combs: 6, mus: [0, 0], ns: [2, 4], ls: [5, 5], ms_combs: [0, 0, 1, -1, 2, -2, 3, -3, 4, -4, 5, -5], ctildes: [0.002845277782050439, 9.3368500116648132e-05, -0.0056905555641008779, -0.00018673700023329626, 0.0056905555641008788, 0.00018673700023329629, -0.0056905555641008805, -0.00018673700023329632, 0.0056905555641008788, 0.00018673700023329629, -0.0056905555641008727, -0.0001867370002332961]}
    - {mu0: 0, rank: 2, ndensity: 2, num_ms_combs: 7, mus: [0, 0], ns: [2, 4], ls: [6, 6], ms_combs: [0, 0, 1, -1, 2, -2, 3, -3, 4, -4, 5, -5, 6, -6], ctildes: [0.00062853153579400095, -7.7987183477770544e-05, -0.0012570630715880021, 0.00015597436695554112, 0.0012570630715880017, -0.00015597436695554106, -0.0012570630715880021, 0.00015597436695554112, 0.0012570630715880015, -0.00015597436695554103, -0.0012570630715880017, 0.00015597436695554106, 0.0012570630715880008, -0.00015597436695554095]}
    - {mu0: 0, rank: 2, ndensity: 2, num_ms_combs: 1, mus: [0, 0], ns: [2, 5], ls: [0, 0], ms_combs: [0, 0], ctildes: [-0.14073408458777389, 0.093065035775209234]}
    - {mu0: 0, rank: 2, ndensity: 2, num_ms_combs: 2, mus: [0, 0], ns: [2, 5], ls: [1, 1], ms_combs: [0, 0, 1, -1], ctildes: [-0.054533403490696637, -0.031754751686079871, 0.10906680698139325, 0.063509503372159729]}
    - {mu0: 0, rank: 2, ndensity: 2, num_ms_combs: 3, mus: [0, 0], ns: [2, 5], ls: [2, 2], ms_combs: [0, 0, 1, -1, 2, -2], ctildes: [-0.04205451800346665, -0.013329762723359603, 0.084109036006933299, 0.026659525446719207, -0.084109036006933327, -0.026659525446719214]}
    - {mu0: 0, rank: 2, ndensity: 2, num_ms_combs: 4, mus: [0, 0], ns: [2, 5], ls: [3, 3], ms_combs: [0, 0, 1, -1, 2, -2, 3, -3], ctildes: [0.023251759346310474, -0.0075013047038135026, -0.046503518692620947, 0.015002609407627005, 0.04650351869262094, -0.015002609407627003, -0.04650351869262094, 0.015002609407627003]}
    - {mu0: 0, rank: 2, ndensity: 2, num_ms_combs: 5, mus: [0, 0], ns: [2, 5], ls: [4, 4], ms_combs: [0, 0, 1, -1, 2, -2, 3, -3, 4, -4], ctildes: [0.0056854766464491131, -0.00078388073772647684, -0.011370953292898223, 0.0015677614754529532, 0.011370953292898223, -0.0015677614754529532, -0.011370953292898221, 0.001567761475452953, 0.011370953292898224, -0.0015677614754529535]}
    - {mu0: 0, rank: 2, ndensity: 2, num_ms_combs: 6, mus: [0, 0], ns: [2, 5], ls: [5, 5], ms_combs: [0, 0, 1, -1, 2, -2, 3, -3, 4, -4, 5, -5], ctildes: [0.0019075007822026513, -0.00025508644534520924, -0.0038150015644053026, 0.00051017289069041848, 0.0038150015644053035, -0.00051017289069041859, -0.0038150015644053039, 0.0005101728906904187, 0.0038150015644053035, -0.00051017289069041859, -0.0038150015644052991, 0.00051017289069041805]}
    - {mu0: 0, rank: 2, ndensity: 2, num_ms_combs: 1, mus: [0, 0], ns: [2, 6], ls: [0, 0], ms_combs: [0, 0], ctildes: [0.28404112528170716, 0.061187978069024845]}
    - {mu0: 0, rank: 2, ndensity: 2, num_ms_combs: 2, mus: [0, 0], ns: [2, 6], ls: [1, 1], ms_combs: [0, 0, 1, -1], ctildes: [0.022462325408404475, 0.03305580204435779, -0.044924650816808943, -0.066111604088715567]}
    - {mu0: 0, rank: 2, ndensity: 2, num_ms_combs: 3, mus: [0, 0], ns: [2, 6], ls: [2, 2], ms_combs: [0, 0, 1, -1, 2, -2], ctildes: [-0.015106716326837239, 0.014850052721359152, 0.030213432653674481, -0.029700105442718307, -0.030213432653674488, 0.029700105442718314]}
    - {mu0: 0, rank: 2, ndensity: 2, num_ms_combs: 4, mus: [0, 0], ns: [2, 6], ls: [3, 3], ms_combs: [0, 0, 1, -1, 2, -2, 3, -3], ctildes: [-0.020988505454909139, 0.0064202163300353171, 0.041977010909818278, -0.012840432660070634, -0.041977010909818271, 0.012840432660070631, 0.041977010909818271, -0.012840432660070631]}
    - {mu0: 0, rank: 2, ndensity: 2, num_ms_combs: 5, mus: [0, 0], ns: [2, 6], ls: [4, 4], ms_combs: [0, 0, 1, -1, 2, -2, 3, -3, 4, -4], ctildes: [-0.013377000598775559, 0.00013116801786866575, 0.026754001197551107, -0.00026233603573733145, -0.026754001197551107, 0.00026233603573733145, 0.026754001197551103, -0.00026233603573733139, -0.026754001197551114, 0.00026233603573733145]}
    - {mu0: 0, rank: 2, ndensity: 2, num_ms_combs: 6, mus: [0, 0], ns: [2, 6], ls: [5, 5], ms_combs: [0, 0, 1, -1, 2, -2, 3, -3, 4, -4, 5, -5], ctildes: [0.0019988123359373422, -6.750730637274891e-05, -0.0039976246718746843, 0.00013501461274549782, 0.0039976246718746852, -0.00013501461274549785, -0.0039976246718746861, 0.00013501461274549787, 0.0039976246718746852, -0.00013501461274549785, -0.0039976246718746809, 0.00013501461274549771]}
    - {mu0: 0, rank: 2, ndensity: 2, num_ms_combs: 1, mus: [0, 0], ns: [2, 7], ls: [0, 0], ms_combs: [0, 0], ctildes: [-0.16862331077542556, 0.050242450404647372]}
    - {mu0: 0, rank: 2, ndensity: 2, num_ms_combs: 2, mus: [0, 0], ns: [2, 7], ls: [1, 1], ms_combs: [0, 0, 1, -1], ctildes: [-0.023791847757902319, -0.0028523181065541318, 0.04758369551580463, 0.0057046362131082627]}
    - {mu0: 0, rank: 2, ndensity: 2, num_ms_combs: 3, mus: [0, 0], ns: [2, 7], ls: [2, 2], ms_combs: [0, 0, 1, -1, 2, -2], ctildes: [-0.0066659895139808446, -0.006396605657728348, 0.013331979027961691, 0.012793211315456698, -0.013331979027961694, -0.012793211315456701]}
    - {mu0: 0, rank: 2, ndensity: 2, num_ms_combs: 4, mus: [0, 0], ns: [2, 7], ls: [3, 3], ms_combs: [0, 0, 1, -1, 2, -2, 3, -3], ctildes: [0.010721597513276176, -0.0045649042336749256, -0.021443195026552352, 0.0091298084673498512, 0.021443195026552349, -0.0091298084673498495, -0.021443195026552349, 0.0091298084673498495]}
    - {mu0: 0, rank: 2, ndensity: 2, num_ms_combs: 5, mus: [0, 0], ns: [2, 7], ls: [4, 4], ms_combs: [0, 0, 1, -1, 2, -2, 3, -3, 4, -4], ctildes: [0.0041486059393720321, -0.00016042155959073646, -0.0082972118787440607, 0.00032084311918147281, 0.0082972118787440607, -0.00032084311918147281, -0.0082972118787440589, 0.00032084311918147276, 0.0082972118787440624, -0.00032084311918147287]}
    - {mu0: 0, rank: 2, ndensity: 2, num_ms_combs: 1, mus: [0, 0], ns: [2, 8], ls: [0, 0], ms_combs: [0, 0], ctildes: [-0.021585484445094168, -0.056807573301163497]}
    - {mu0: 0, rank: 2, ndensity: 2, num_ms_combs: 2, mus: [0, 0], ns: [2, 8], ls: [1, 1], ms_combs: [0, 0, 1, -1], ctildes: [0.019495590024633254, -0.0077427003224920478, -0.038991180049266501, 0.015485400644984092]}
    - {mu0: 0, rank: 2, ndensity: 2, num_ms_combs: 3, mus: [0, 0], ns: [2, 8], ls: [2, 2], ms_combs: [0, 0, 1, -1, 2, -2], ctildes: [0.0066029710481539427, -0.00086452352151524144, -0.013205942096307887, 0.0017290470430304831, 0.013205942096307891, -0.0017290470430304835]}
    - {mu0: 0, rank: 2, ndensity: 2, num_ms_combs: 4, mus: [0, 0], ns: [2, 8], ls: [3, 3], ms_combs: [0, 0, 1, -1, 2, -2, 3, -3], ctildes: [-0.0018564083625634185, -0.00050316637623346147, 0.0037128167251268369, 0.0010063327524669229, -0.0037128167251268365, -0.0010063327524669227, 0.0037128167251268365, 0.0010063327524669227]}
    - {mu0: 0, rank: 2, ndensity: 2, num_ms_combs: 5, mus: [0, 0], ns: [2, 8], ls: [4, 4], ms_combs: [0, 0, 1, -1, 2, -2, 3, -3, 4, -4], ctildes: [0.0035828916960917636, -0.00033130311463652024, -0.0071657833921835246, 0.00066260622927304027, 0.0071657833921835246, -0.00066260622927304027, -0.0071657833921835229, 0.00066260622927304016, 0.0071657833921835255, -0.00066260622927304038]}
    - {mu0: 0, rank: 2, ndensity: 2, num_ms_combs: 1, mus: [0, 0], ns: [2, 9], ls: [0, 0], ms_combs: [0, 0], ctildes: [0.025645348290968342, 0.026845132520636809]}
    - {mu0: 0, rank: 2, ndensity: 2, num_ms_combs: 2, mus: [0, 0], ns: [2, 9], ls: [1, 1], ms_combs: [0, 0, 1, -1], ctildes: [0.012027710460555618, 0.0012433153909091677, -0.024055420921111233, -0.002486630781818335]}
    - {mu0: 0, rank: 2, ndensity: 2, num_ms_combs: 3, mus: [0, 0], ns: [2, 9], ls: [2, 2], ms_combs: [0, 0, 1, -1, 2, -2], ctildes: [0.025678119299193006, -0.00096927284942550777, -0.05135623859838602, 0.0019385456988510158, 0.051356238598386027, -0.0019385456988510162]}
    - {mu0: 0, rank: 2, ndensity: 2, num_ms_combs: 4, mus: [0, 0], ns: [2, 9], ls: [3, 3], ms_combs: [0, 0, 1, -1, 2, -2, 3, -3], ctildes: [0.0098439386316254446, -0.00036345806568431399, -0.019687877263250889, 0.00072691613136862798, 0.019687877263250886, -0.00072691613136862787, -0.019687877263250886, 0.00072691613136862787]}
    - {mu0: 0, rank: 2, ndensity: 2, num_ms_combs: 1, mus: [0, 0], ns: [2, 10], ls: [0, 0], ms_combs: [0, 0], ctildes: [-0.01445800192405375, -0.026822193078143187]}
    - {mu0: 0, rank: 2, ndensity: 2, num_ms_combs: 2, mus: [0, 0], ns: [2, 10], ls: [1, 1], ms_combs: [0, 0, 1, -1], ctildes: [-0.017130769697603368, -0.00072050255150323461, 0.034261539395206729, 0.001441005103006469]}
    - {mu0: 0, rank: 2, ndensity: 2, num_ms_combs: 3, mus: [0, 0], ns: [2, 10], ls: [2, 2], ms_combs: [0, 0, 1, -1, 2, -2], ctildes: [-0.017865214527857644, 0.00079098773935026856, 0.035730429055715288, -0.0015819754787005373, -0.035730429055715301, 0.0015819754787005378]}
    - {mu0: 0, rank: 2, ndensity: 2, num_ms_combs: 4, mus: [0, 0], ns: [2, 10], ls: [3, 3], ms_combs: [0, 0, 1, -1, 2, -2, 3, -3], ctildes: [-0.00071696015356473557, -0.00034658517398273529, 0.0014339203071294711, 0.00069317034796547057, -0.0014339203071294709, -0.00069317034796547046, 0.0014339203071294709, 0.00069317034796547046]}
    - {mu0: 0, rank: 2, ndensity: 2, num_ms_combs: 1, mus: [0, 0], ns: [2, 11], ls: [0, 0], ms_combs: [0, 0], ctildes: [0.053944181974242361, 0.0028840664599387609]}
    - {mu0: 0, rank: 2, ndensity: 2, num_ms_combs: 2, mus: [0, 0], ns: [2, 11], ls: [1, 1], ms_combs: [0, 0, 1, -1], ctildes: [0.0012855732611532209, 0.0010947718829361639, -0.0025711465223064414, -0.0021895437658723273]}
    - {mu0: 0, rank: 2, ndensity: 2, num_ms_combs: 3, mus: [0, 0], ns: [2, 11], ls: [2, 2], ms_combs: [0, 0, 1, -1, 2, -2], ctildes: [-0.0038884918816531762, 0.0012191331832536417, 0.0077769837633063534, -0.0024382663665072839, -0.0077769837633063551, 0.0024382663665072843]}
    - {mu0: 0, rank: 2, ndensity: 2, num_ms_combs: 1, mus: [0, 0], ns: [2, 12], ls: [0, 0], ms_combs: [0, 0], ctildes: [0.048114482505303771, -0.014908969308131849]}
    - {mu0: 0, rank: 2, ndensity: 2, num_ms_combs: 2, mus: [0, 0], ns: [2, 12], ls: [1, 1], ms_combs: [0, 0, 1, -1], ctildes: [-0.009131074974402683, 0.00025495076851505806, 0.018262149948805362, -0.00050990153703011601]}
    - {mu0: 0, rank: 2, ndensity: 2, num_ms_combs: 3, mus: [0, 0], ns: [2, 12], ls: [2, 2], ms_combs: [0, 0, 1, -1, 2, -2], ctildes: [-0.002769296337461368, -0.00010414083398295179, 0.0055385926749227368, 0.00020828166796590361, -0.0055385926749227385, -0.00020828166796590367]}
    - {mu0: 0, rank: 2, ndensity: 2, num_ms_combs: 1, mus: [0, 0], ns: [3, 3], ls: [0, 0], ms_combs: [0, 0], ctildes: [0.11423082901203459, 0.053771153347021559]}
    - {mu0: 0, rank: 2, ndensity: 2, num_ms_combs: 2, mus: [0, 0], ns: [3, 3], ls: [1, 1], ms_combs: [0, 0, 1, -1], ctildes: [-0.0025657593141910043, -0.014648994449285798, 0.0051315186283820069, 0.029297988898571593]}
    - {mu0: 0, rank: 2, ndensity: 2, num_ms_combs: 3, mus: [0, 0], ns: [3, 3], ls: [2, 2], ms_combs: [0, 0, 1, -1, 2, -2], ctildes: [0.050245829472500565, 0.011239831158186206, -0.10049165894500114, -0.022479662316372412, 0.10049165894500116, 0.022479662316372419]}
    - {mu0: 0, rank: 2, ndensity: 2, num_ms_combs: 4, mus: [0, 0], ns: [3, 3], ls: [3, 3], ms_combs: [0, 0, 1, -1, 2, -2, 3, -3], ctildes: [0.033398588477699553, 0.0023929721725419674, -0.066797176955399107, -0.0047859443450839348, 0.066797176955399107, 0.004785944345083934, -0.066797176955399107, -0.004785944345083934]}
    - {mu0: 0, rank: 2, ndensity: 2, num_ms_combs: 5, mus: [0, 0], ns: [3, 3], ls: [4, 4], ms_combs: [0, 0, 1, -1, 2, -2, 3, -3, 4, -4], ctildes: [0.0063721037467050403, -0.00020956527187122726, -0.012744207493410077, 0.00041913054374245436, 0.012744207493410077, -0.00041913054374245436, -0.012744207493410074, 0.00041913054374245431, 0.012744207493410079, -0.00041913054374245447]}
    - {mu0: 0, rank: 2, ndensity: 2, num_ms_combs: 6, mus: [0, 0], ns: [3, 3], ls: [5, 5], ms_combs: [0, 0, 1, -1, 2, -2, 3, -3, 4, -4, 5, -5], ctildes: [0.0090989426198713978, -0.00087547908884487088, -0.018197885239742796, 0.0017509581776897418, 0.018197885239742799, -0.001750958177689742, -0.018197885239742802, 0.0017509581776897424, 0.018197885239742799, -0.001750958177689742, -0.018197885239742778, 0.00175095817768974]}
    - {mu0: 0, rank: 2, ndensity: 2, num_ms_combs: 7, mus: [0, 0], ns: [3, 3], ls: [6, 6], ms_combs: [0, 0, 1, -1, 2, -2, 3, -3, 4, -4, 5, -5, 6, -6], ctildes: [0.0064056436453424513, -0.00052061921077927494, -0.012811287290684906, 0.0010412384215585501, 0.012811287290684901, -0.0010412384215585497, -0.012811287290684906, 0.0010412384215585501, 0.012811287290684897, -0.0010412384215585495, -0.012811287290684901, 0.0010412384215585497, 0.012811287290684892, -0.001041238421558549]}
    - {mu0: 0, rank: 2, ndensity: 2, num_ms_combs: 1, mus: [0, 0], ns: [3, 4], ls: [0, 0], ms_combs: [0, 0], ctildes: [0.071315539572120487, 0.057195341852169332]}
    - {mu0: 0, rank: 2, ndensity: 2, num_ms_combs: 2, mus: [0, 0], ns: [3, 4], ls: [1, 1], ms_combs: [0, 0, 1, -1], ctildes: [0.062055139262616188, 0.01609221852422784, -0.12411027852523235, -0.032184437048455673]}
    - {mu0: 0, rank: 2, ndensity: 2, num_ms_combs: 3, mus: [0, 0], ns: [3, 4], ls: [2, 2], ms_combs: [0, 0, 1, -1, 2, -2], ctildes: [-0.065850240909638313, -0.029936242932563879, 0.13170048181927663, 0.059872485865127764, -0.13170048181927668, -0.059872485865127778]}
    - {mu0: 0, rank: 2, ndensity: 2, num_ms_combs: 4, mus: [0, 0], ns: [3, 4], ls: [3, 3], ms_combs: [0, 0, 1, -1, 2, -2, 3, -3], ctildes: [-0.0028781562636657114, -0.0037168602848167151, 0.0057563125273314229, 0.0074337205696334303, -0.005756312527331422, -0.0074337205696334285, 0.005756312527331422, 0.0074337205696334285]}
    - {mu0: 0, rank: 2, ndensity: 2, num_ms_combs: 5, mus: [0, 0], ns: [3, 4], ls: [4, 4], ms_combs: [0, 0, 1, -1, 2, -2, 3, -3, 4, -4], ctildes: [-0.0093868068064749035, 0.0012993260052682374, 0.0187736136129498, -0.0025986520105364739, -0.0187736136129498, 0.0025986520105364739, 0.018773613612949797, -0.0025986520105364735, -0.018773613612949804, 0.0025986520105364744]}
    - {mu0: 0, rank: 2, ndensity: 2, num_ms_combs: 6, mus: [0, 0], ns: [3, 4], ls: [5, 5], ms_combs: [0, 0, 1, -1, 2, -2, 3, -3, 4, -4, 5, -5], ctildes: [-0.0065904803209395112, 0.00048344925987034508, 0.013180960641879022, -0.00096689851974069015, -0.013180960641879026, 0.00096689851974069037, 0.013180960641879028, -0.00096689851974069048, -0.013180960641879026, 0.00096689851974069037, 0.01318096064187901, -0.00096689851974068929]}
    - {mu0: 0, rank: 2, ndensity: 2, num_ms_combs: 1, mus: [0, 0], ns: [3, 5], ls: [0, 0], ms_combs: [0, 0], ctildes: [0.033834234042190214, -0.104063024931192]}
    - {mu0: 0, rank: 2, ndensity: 2, num_ms_combs: 2, mus: [0, 0], ns: [3, 5], ls: [1, 1], ms_combs: [0, 0, 1, -1], ctildes: [0.037722905572725049, -0.011887011351802743, -0.075445811145450084, 0.023774022703605482]}
    - {mu0: 0, rank: 2, ndensity: 2, num_ms_combs: 3, mus: [0, 0], ns: [3, 5], ls: [2, 2], ms_combs: [0, 0, 1, -1, 2, -2], ctildes: [-0.042621785958410596, 0.022046315874931402, 0.085243571916821206, -0.044092631749862811, -0.08524357191682122, 0.044092631749862825]}
    - {mu0: 0, rank: 2, ndensity: 2, num_ms_combs: 4, mus: [0, 0], ns: [3, 5], ls: [3, 3], ms_combs: [0, 0, 1, -1, 2, -2, 3, -3], ctildes: [0.019099183700517094, 0.00084716130352134578, -0.038198367401034189, -0.0016943226070426916, 0.038198367401034189, 0.0016943226070426913, -0.038198367401034189, -0.0016943226070426913]}
    - {mu0: 0, rank: 2, ndensity: 2, num_ms_combs: 5, mus: [0, 0], ns: [3, 5], ls: [4, 4], ms_combs: [0, 0, 1, -1, 2, -2, 3, -3, 4, -4], ctildes: [0.0057189350494614615, -0.00087993471498675098, -0.011437870098922919, 0.0017598694299735013, 0.011437870098922919, -0.0017598694299735013, -0.011437870098922916, 0.0017598694299735011, 0.011437870098922921, -0.0017598694299735015]}
    - {mu0: 0, rank: 2, ndensity: 2, num_ms_combs: 6, mus: [0, 0], ns: [3, 5], ls: [5, 5], ms_combs: [0, 0, 1, -1, 2, -2, 3, -3, 4, -4, 5, -5], ctildes: [0.0010914872302245748, -0.0001019439925944327, -0.0021829744604491496, 0.00020388798518886539, 0.00218297446044915, -0.00020388798518886542, -0.0021829744604491504, 0.00020388798518886547, 0.00218297446044915, -0.00020388798518886542, -0.0021829744604491474, 0.0002038879851888652]}
    - {mu0: 0, rank: 2, ndensity: 2, num_ms_combs: 1, mus: [0, 0], ns: [3, 6], ls: [0, 0], ms_combs: [0, 0], ctildes: [0.15638076736570369, -0.056525622730017107]}
    - {mu0: 0, rank: 2, ndensity: 2, num_ms_combs: 2, mus: [0, 0], ns: [3, 6], ls: [1, 1], ms_combs: [0, 0, 1, -1], ctildes: [0.037438974431753855, -0.017171540580669175, -0.074877948863507696, 0.034343081161338343]}
    - {mu0: 0, rank: 2, ndensity: 2, num_ms_combs: 3, mus: [0, 0], ns: [3, 6], ls: [2, 2], ms_combs: [0, 0, 1, -1, 2, -2], ctildes: [0.066707811279234336, -0.01672636426193036, -0.1334156225584687, 0.033452728523860727, 0.13341562255846873, -0.033452728523860734]}
    - {mu0: 0, rank: 2, ndensity: 2, num_ms_combs: 4, mus: [0, 0], ns: [3, 6], ls: [3, 3], ms_combs: [0, 0, 1, -1, 2, -2, 3, -3], ctildes: [0.0020502368879043663, -0.0015886601646347735, -0.0041004737758087327, 0.0031773203292695469, 0.0041004737758087318, -0.0031773203292695465, -0.0041004737758087318, 0.0031773203292695465]}
    - {mu0: 0, rank: 2, ndensity: 2, num_ms_combs: 5, mus: [0, 0], ns: [3, 6], ls: [4, 4], ms_combs: [0, 0, 1, -1, 2, -2, 3, -3, 4, -4], ctildes: [-0.0061718834495803013, 0.0010596742297222302, 0.012343766899160599, -0.0021193484594444595, -0.012343766899160599, 0.0021193484594444595, 0.012343766899160597, -0.0021193484594444591, -0.012343766899160601, 0.00211934845944446]}
    - {mu0: 0, rank: 2, ndensity: 2, num_ms_combs: 1, mus: [0, 0], ns: [3, 7], ls: [0, 0], ms_combs: [0, 0], ctildes: [-0.071709177499340221, -0.019423817941333393]}
    - {mu0: 0, rank: 2, ndensity: 2, num_ms_combs: 2, mus: [0, 0], ns: [3, 7], ls: [1, 1], ms_combs: [0, 0, 1, -1], ctildes: [0.010163662282440714, -0.0032650692132288961, -0.02032732456488142, 0.0065301384264577905]}
    - {mu0: 0, rank: 2, ndensity: 2, num_ms_combs: 3, mus: [0, 0], ns: [3, 7], ls: [2, 2], ms_combs: [0, 0, 1, -1, 2, -2], ctildes: [-0.054698002603053804, 0.0066513127095273921, 0.10939600520610762, -0.013302625419054786, -0.10939600520610765, 0.013302625419054788]}
    - {mu0: 0, rank: 2, ndensity: 2, num_ms_combs: 4, mus: [0, 0], ns: [3, 7], ls: [3, 3], ms_combs: [0, 0, 1, -1, 2, -2, 3, -3], ctildes: [0.010892057106161734, -0.00094699821797628655, -0.021784114212323468, 0.0018939964359525731, 0.021784114212323465, -0.0018939964359525729, -0.021784114212323465, 0.0018939964359525729]}
    - {mu0: 0, rank: 2, ndensity: 2, num_ms_combs: 5, mus: [0, 0], ns: [3, 7], ls: [4, 4], ms_combs: [0, 0, 1, -1, 2, -2, 3, -3, 4, -4], ctildes: [0.002332987095448053, -0.00016745466889107394, -0.0046659741908961043, 0.00033490933778214778, 0.0046659741908961043, -0.00033490933778214778, -0.0046659741908961034, 0.00033490933778214773, 0.0046659741908961052, -0.00033490933778214783]}
    - {mu0: 0, rank: 2, ndensity: 2, num_ms_combs: 1, mus: [0, 0], ns: [3, 8], ls: [0, 0], ms_combs: [0, 0], ctildes: [-0.033935139241210117, 0.032234262153644021]}
    - {mu0: 0, rank: 2, ndensity: 2, num_ms_combs: 2, mus: [0, 0], ns: [3, 8], ls: [1, 1], ms_combs: [0, 0, 1, -1], ctildes: [-0.033859181161891717, 0.007723582857425703, 0.067718362323783421, -0.015447165714851403]}
    - {mu0: 0, rank: 2, ndensity: 2, num_ms_combs: 3, mus: [0, 0], ns: [3, 8], ls: [2, 2], ms_combs: [0, 0, 1, -1, 2, -2], ctildes: [-0.0030314030498401327, 0.001284667020364189, 0.0060628060996802662, -0.0025693340407283781, -0.0060628060996802671, 0.0025693340407283789]}
    - {mu0: 0, rank: 2, ndensity: 2, num_ms_combs: 4, mus: [0, 0], ns: [3, 8], ls: [3, 3], ms_combs: [0, 0, 1, -1, 2, -2, 3, -3], ctildes: [-0.0010279776236681972, 0.00059192597902361151, 0.0020559552473363944, -0.001183851958047223, -0.0020559552473363939, 0.0011838519580472228, 0.0020559552473363939, -0.0011838519580472228]}
    - {mu0: 0, rank: 2, ndensity: 2, num_ms_combs: 1, mus: [0, 0], ns: [3, 9], ls: [0, 0], ms_combs: [0, 0], ctildes: [0.10112733851027692, -0.017172544513524637]}
    - {mu0: 0, rank: 2, ndensity: 2, num_ms_combs: 2, mus: [0, 0], ns: [3, 9], ls: [1, 1], ms_combs: [0, 0, 1, -1], ctildes: [-0.024768501946412023, 0.00098454094540916903, 0.04953700389282404, -0.0019690818908183376]}
    - {mu0: 0, rank: 2, ndensity: 2, num_ms_combs: 3, mus: [0, 0], ns: [3, 9], ls: [2, 2], ms_combs: [0, 0, 1, -1, 2, -2], ctildes: [-0.0080464177790784824, 7.274401379312984e-05, 0.016092835558156968, -0.00014548802758625971, -0.016092835558156972, 0.00014548802758625973]}
    - {mu0: 0, rank: 2, ndensity: 2, num_ms_combs: 4, mus: [0, 0], ns: [3, 9], ls: [3, 3], ms_combs: [0, 0, 1, -1, 2, -2, 3, -3], ctildes: [-0.00083226125736815169, -6.4949736974424308e-05, 0.0016645225147363034, 0.00012989947394884862, -0.0016645225147363032, -0.00012989947394884859, 0.0016645225147363032, 0.00012989947394884859]}
    - {mu0: 0, rank: 2, ndensity: 2, num_ms_combs: 1, mus: [0, 0], ns: [3, 10], ls: [0, 0], ms_combs: [0, 0], ctildes: [-0.029684121173836935, 0.011770232033008903]}
    - {mu0: 0, rank: 2, ndensity: 2, num_ms_combs: 2, mus: [0, 0], ns: [3, 10], ls: [1, 1], ms_combs: [0, 0, 1, -1], ctildes: [0.058233792301178929, -0.0054331162278449009, -0.11646758460235783, 0.0108662324556898]}
    - {mu0: 0, rank: 2, ndensity: 2, num_ms_combs: 3, mus: [0, 0], ns: [3, 10], ls: [2, 2], ms_combs: [0, 0, 1, -1, 2, -2], ctildes: [0.0016749646290684708, -0.00010767100786821868, -0.0033499292581369421, 0.00021534201573643739, 0.003349929258136943, -0.00021534201573643745]}
    - {mu0: 0, rank: 2, ndensity: 2, num_ms_combs: 1, mus: [0, 0], ns: [3, 11], ls: [0, 0], ms_combs: [0, 0], ctildes: [-0.07622053023570724, 0.0073942469115160087]}
    - {mu0: 0, rank: 2, ndensity: 2, num_ms_combs: 2, mus: [0, 0], ns: [3, 11], ls: [1, 1], ms_combs: [0, 0, 1, -1], ctildes: [-0.015390861079692083, 0.0025517821084479514, 0.030781722159384163, -0.005103564216895902]}
    - {mu0: 0, rank: 2, ndensity: 2, num_ms_combs: 3, mus: [0, 0], ns: [3, 11], ls: [2, 2], ms_combs: [0, 0, 1, -1, 2, -2], ctildes: [-0.00543132031137529, 0.00047408033278740136, 0.010862640622750582, -0.00094816066557480282, -0.010862640622750584, 0.00094816066557480304]}
    - {mu0: 0, rank: 2, ndensity: 2, num_ms_combs: 1, mus: [0, 0], ns: [3, 12], ls: [0, 0], ms_combs: [0, 0], ctildes: [-0.0017594807624346442, 0.0038642652153126245]}
    - {mu0: 0, rank: 2, ndensity: 2, num_ms_combs: 2, mus: [0, 0], ns: [3, 12], ls: [1, 1], ms_combs: [0, 0, 1, -1], ctildes: [0.012015251539575901, -0.0020106592517449705, -0.024030503079151798, 0.004021318503489941]}
    - {mu0: 0, rank: 2, ndensity: 2, num_ms_combs: 1, mus: [0, 0], ns: [4, 4], ls: [0, 0], ms_combs: [0, 0], ctildes: [-0.006543414477323482, -0.033541385334264255]}
    - {mu0: 0, rank: 2, ndensity: 2, num_ms_combs: 2, mus: [0, 0], ns: [4, 4], ls: [1, 1], ms_combs: [0, 0, 1, -1], ctildes: [-0.006427195844535008, -0.0054167192349393201, 0.012854391689070014, 0.010833438469878637]}
    - {mu0: 0, rank: 2, ndensity: 2, num_ms_combs: 3, mus: [0, 0], ns: [4, 4], ls: [2, 2], ms_combs: [0, 0, 1, -1, 2, -2], ctildes: [0.024203263282105276, 0.0098196947127259879, -0.048406526564210559, -0.019639389425451979, 0.048406526564210572, 0.019639389425451983]}
    - {mu0: 0, rank: 2, ndensity: 2, num_ms_combs: 4, mus: [0, 0], ns: [4, 4], ls: [3, 3], ms_combs: [0, 0, 1, -1, 2, -2, 3, -3], ctildes: [-0.022597171883635671, 0.0036610156926683932, 0.045194343767271342, -0.0073220313853367865, -0.045194343767271335, 0.0073220313853367856, 0.045194343767271335, -0.0073220313853367856]}
    - {mu0: 0, rank: 2, ndensity: 2, num_ms_combs: 5, mus: [0, 0], ns: [4, 4], ls: [4, 4], ms_combs: [0, 0, 1, -1, 2, -2, 3, -3, 4, -4], ctildes: [0.00071671486756078582, -9.1212707711679279e-05, -0.0014334297351215712, 0.0001824254154233585, 0.0014334297351215712, -0.0001824254154233585, -0.001433429735121571, 0.00018242541542335845, 0.0014334297351215714, -0.00018242541542335853]}
    - {mu0: 0, rank: 2, ndensity: 2, num_ms_combs: 6, mus: [0, 0], ns: [4, 4], ls: [5, 5], ms_combs: [0, 0, 1, -1, 2, -2, 3, -3, 4, -4, 5, -5], ctildes: [0.00283381160996957, -0.00020643291066412125, -0.0056676232199391399, 0.0004128658213282425, 0.0056676232199391408, -0.00041286582132824256, -0.0056676232199391425, 0.00041286582132824261, 0.0056676232199391408, -0.00041286582132824256, -0.0056676232199391347, 0.00041286582132824212]}
    - {mu0: 0, rank: 2, ndensity: 2, num_ms_combs: 1, mus: [0, 0], ns: [4, 5], ls: [0, 0], ms_combs: [0, 0], ctildes: [0.044021944353579701, 0.096724104419637233]}
    - {mu0: 0, rank: 2, ndensity: 2, num_ms_combs: 2, mus: [0, 0], ns: [4, 5], ls: [1, 1], ms_combs: [0, 0, 1, -1], ctildes: [-0.10900885171073212, 0.0046241169632342512, 0.21801770342146418, -0.0092482339264685007]}
    - {mu0: 0, rank: 2, ndensity: 2, num_ms_combs: 3, mus: [0, 0], ns: [4, 5], ls: [2, 2], ms_combs: [0, 0, 1, -1, 2, -2], ctildes: [-0.020843602127169503, -0.007596178444327556, 0.041687204254339007, 0.015192356888655114, -0.041687204254339021, -0.015192356888655117]}
    - {mu0: 0, rank: 2, ndensity: 2, num_ms_combs: 4, mus: [0, 0], ns: [4, 5], ls: [3, 3], ms_combs: [0, 0, 1, -1, 2, -2, 3, -3], ctildes: [0.01481017253468565, -0.0027265110031763217, -0.0296203450693713, 0.0054530220063526433, 0.029620345069371296, -0.0054530220063526424, -0.029620345069371296, 0.0054530220063526424]}
